digraph Tree {
node [shape=box] ;
0 [label="X[2] <= 8.5\nmse = 3019.839\nsamples = 23859\nvalue = 35.818"] ;
1 [label="X[7] <= 31.5\nmse = 1720.381\nsamples = 19143\nvalue = 25.951"] ;
0 -> 1 [labeldistance=2.5, labelangle=45, headlabel="True"] ;
2 [label="X[5] <= 19.5\nmse = 841.543\nsamples = 11987\nvalue = 15.684"] ;
1 -> 2 ;
3 [label="X[6] <= 18.5\nmse = 1186.835\nsamples = 7298\nvalue = 22.088"] ;
2 -> 3 ;
4 [label="X[7] <= 26.5\nmse = 1244.835\nsamples = 6705\nvalue = 24.042"] ;
3 -> 4 ;
5 [label="X[7] <= 22.5\nmse = 1038.416\nsamples = 2928\nvalue = 17.005"] ;
4 -> 5 ;
6 [label="X[8] <= 1.5\nmse = 334.97\nsamples = 644\nvalue = 10.528"] ;
5 -> 6 ;
7 [label="X[0] <= 13423.5\nmse = 216.464\nsamples = 436\nvalue = 8.67"] ;
6 -> 7 ;
8 [label="X[6] <= 4.5\nmse = 245.81\nsamples = 190\nvalue = 11.079"] ;
7 -> 8 ;
9 [label="X[1] <= 0.5\nmse = 403.722\nsamples = 86\nvalue = 13.895"] ;
8 -> 9 ;
10 [label="X[0] <= 10948.0\nmse = 32.889\nsamples = 15\nvalue = 7.333"] ;
9 -> 10 ;
11 [label="X[0] <= 6440.5\nmse = 23.669\nsamples = 13\nvalue = 6.154"] ;
10 -> 11 ;
12 [label="mse = 0.0\nsamples = 5\nvalue = 10.0"] ;
11 -> 12 ;
13 [label="X[0] <= 9928.0\nmse = 23.438\nsamples = 8\nvalue = 3.75"] ;
11 -> 13 ;
14 [label="X[5] <= 2.0\nmse = 20.408\nsamples = 7\nvalue = 2.857"] ;
13 -> 14 ;
15 [label="mse = 0.0\nsamples = 1\nvalue = 10.0"] ;
14 -> 15 ;
16 [label="X[4] <= 8.5\nmse = 13.889\nsamples = 6\nvalue = 1.667"] ;
14 -> 16 ;
17 [label="mse = 0.0\nsamples = 5\nvalue = 0.0"] ;
16 -> 17 ;
18 [label="mse = 0.0\nsamples = 1\nvalue = 10.0"] ;
16 -> 18 ;
19 [label="mse = 0.0\nsamples = 1\nvalue = 10.0"] ;
13 -> 19 ;
20 [label="X[3] <= 3.0\nmse = 25.0\nsamples = 2\nvalue = 15.0"] ;
10 -> 20 ;
21 [label="mse = 0.0\nsamples = 1\nvalue = 20.0"] ;
20 -> 21 ;
22 [label="mse = 0.0\nsamples = 1\nvalue = 10.0"] ;
20 -> 22 ;
23 [label="X[3] <= 2.5\nmse = 471.047\nsamples = 71\nvalue = 15.282"] ;
9 -> 23 ;
24 [label="X[2] <= 5.0\nmse = 313.76\nsamples = 50\nvalue = 13.2"] ;
23 -> 24 ;
25 [label="X[5] <= 17.5\nmse = 52.794\nsamples = 29\nvalue = 7.586"] ;
24 -> 25 ;
26 [label="X[0] <= 6772.0\nmse = 25.0\nsamples = 16\nvalue = 5.0"] ;
25 -> 26 ;
27 [label="X[0] <= 3363.0\nmse = 22.222\nsamples = 12\nvalue = 6.667"] ;
26 -> 27 ;
28 [label="X[0] <= 992.5\nmse = 25.0\nsamples = 8\nvalue = 5.0"] ;
27 -> 28 ;
29 [label="X[2] <= 2.5\nmse = 16.0\nsamples = 5\nvalue = 8.0"] ;
28 -> 29 ;
30 [label="mse = 0.0\nsamples = 1\nvalue = 0.0"] ;
29 -> 30 ;
31 [label="mse = 0.0\nsamples = 4\nvalue = 10.0"] ;
29 -> 31 ;
32 [label="mse = 0.0\nsamples = 3\nvalue = 0.0"] ;
28 -> 32 ;
33 [label="mse = 0.0\nsamples = 4\nvalue = 10.0"] ;
27 -> 33 ;
34 [label="mse = 0.0\nsamples = 4\nvalue = 0.0"] ;
26 -> 34 ;
35 [label="X[6] <= 2.0\nmse = 68.639\nsamples = 13\nvalue = 10.769"] ;
25 -> 35 ;
36 [label="X[0] <= 1107.0\nmse = 25.0\nsamples = 2\nvalue = 25.0"] ;
35 -> 36 ;
37 [label="mse = 0.0\nsamples = 1\nvalue = 20.0"] ;
36 -> 37 ;
38 [label="mse = 0.0\nsamples = 1\nvalue = 30.0"] ;
36 -> 38 ;
39 [label="X[2] <= 2.0\nmse = 33.058\nsamples = 11\nvalue = 8.182"] ;
35 -> 39 ;
40 [label="mse = 0.0\nsamples = 1\nvalue = 0.0"] ;
39 -> 40 ;
41 [label="X[3] <= 1.0\nmse = 29.0\nsamples = 10\nvalue = 9.0"] ;
39 -> 41 ;
42 [label="X[0] <= 8345.5\nmse = 22.222\nsamples = 9\nvalue = 10.0"] ;
41 -> 42 ;
43 [label="X[0] <= 8158.0\nmse = 16.0\nsamples = 5\nvalue = 12.0"] ;
42 -> 43 ;
44 [label="mse = 0.0\nsamples = 4\nvalue = 10.0"] ;
43 -> 44 ;
45 [label="mse = 0.0\nsamples = 1\nvalue = 20.0"] ;
43 -> 45 ;
46 [label="X[0] <= 8432.5\nmse = 18.75\nsamples = 4\nvalue = 7.5"] ;
42 -> 46 ;
47 [label="mse = 0.0\nsamples = 1\nvalue = 0.0"] ;
46 -> 47 ;
48 [label="mse = 0.0\nsamples = 3\nvalue = 10.0"] ;
46 -> 48 ;
49 [label="mse = 0.0\nsamples = 1\nvalue = 0.0"] ;
41 -> 49 ;
50 [label="X[0] <= 3282.5\nmse = 570.522\nsamples = 21\nvalue = 20.952"] ;
24 -> 50 ;
51 [label="X[0] <= 2612.5\nmse = 1336.0\nsamples = 5\nvalue = 38.0"] ;
50 -> 51 ;
52 [label="X[0] <= 1753.5\nmse = 468.75\nsamples = 4\nvalue = 22.5"] ;
51 -> 52 ;
53 [label="X[5] <= 12.5\nmse = 625.0\nsamples = 2\nvalue = 35.0"] ;
52 -> 53 ;
54 [label="mse = 0.0\nsamples = 1\nvalue = 60.0"] ;
53 -> 54 ;
55 [label="mse = 0.0\nsamples = 1\nvalue = 10.0"] ;
53 -> 55 ;
56 [label="mse = 0.0\nsamples = 2\nvalue = 10.0"] ;
52 -> 56 ;
57 [label="mse = 0.0\nsamples = 1\nvalue = 100.0"] ;
51 -> 57 ;
58 [label="X[0] <= 12325.0\nmse = 212.109\nsamples = 16\nvalue = 15.625"] ;
50 -> 58 ;
59 [label="X[0] <= 3531.0\nmse = 69.388\nsamples = 14\nvalue = 11.429"] ;
58 -> 59 ;
60 [label="mse = 0.0\nsamples = 1\nvalue = 0.0"] ;
59 -> 60 ;
61 [label="X[2] <= 6.5\nmse = 63.905\nsamples = 13\nvalue = 12.308"] ;
59 -> 61 ;
62 [label="X[6] <= 2.0\nmse = 100.0\nsamples = 2\nvalue = 20.0"] ;
61 -> 62 ;
63 [label="mse = 0.0\nsamples = 1\nvalue = 30.0"] ;
62 -> 63 ;
64 [label="mse = 0.0\nsamples = 1\nvalue = 10.0"] ;
62 -> 64 ;
65 [label="X[5] <= 3.0\nmse = 44.628\nsamples = 11\nvalue = 10.909"] ;
61 -> 65 ;
66 [label="mse = 0.0\nsamples = 1\nvalue = 20.0"] ;
65 -> 66 ;
67 [label="X[0] <= 5018.0\nmse = 40.0\nsamples = 10\nvalue = 10.0"] ;
65 -> 67 ;
68 [label="X[0] <= 4732.0\nmse = 22.222\nsamples = 3\nvalue = 13.333"] ;
67 -> 68 ;
69 [label="mse = 0.0\nsamples = 2\nvalue = 10.0"] ;
68 -> 69 ;
70 [label="mse = 0.0\nsamples = 1\nvalue = 20.0"] ;
68 -> 70 ;
71 [label="X[5] <= 11.5\nmse = 40.816\nsamples = 7\nvalue = 8.571"] ;
67 -> 71 ;
72 [label="X[0] <= 6945.5\nmse = 18.75\nsamples = 4\nvalue = 12.5"] ;
71 -> 72 ;
73 [label="mse = 0.0\nsamples = 2\nvalue = 10.0"] ;
72 -> 73 ;
74 [label="X[0] <= 9405.0\nmse = 25.0\nsamples = 2\nvalue = 15.0"] ;
72 -> 74 ;
75 [label="mse = 0.0\nsamples = 1\nvalue = 20.0"] ;
74 -> 75 ;
76 [label="mse = 0.0\nsamples = 1\nvalue = 10.0"] ;
74 -> 76 ;
77 [label="X[0] <= 11509.0\nmse = 22.222\nsamples = 3\nvalue = 3.333"] ;
71 -> 77 ;
78 [label="mse = 0.0\nsamples = 2\nvalue = 0.0"] ;
77 -> 78 ;
79 [label="mse = 0.0\nsamples = 1\nvalue = 10.0"] ;
77 -> 79 ;
80 [label="X[5] <= 10.0\nmse = 225.0\nsamples = 2\nvalue = 45.0"] ;
58 -> 80 ;
81 [label="mse = 0.0\nsamples = 1\nvalue = 30.0"] ;
80 -> 81 ;
82 [label="mse = 0.0\nsamples = 1\nvalue = 60.0"] ;
80 -> 82 ;
83 [label="X[2] <= 5.0\nmse = 810.658\nsamples = 21\nvalue = 20.238"] ;
23 -> 83 ;
84 [label="X[0] <= 5313.0\nmse = 1920.139\nsamples = 6\nvalue = 44.167"] ;
83 -> 84 ;
85 [label="X[5] <= 5.5\nmse = 88.889\nsamples = 3\nvalue = 16.667"] ;
84 -> 85 ;
86 [label="mse = 0.0\nsamples = 1\nvalue = 30.0"] ;
85 -> 86 ;
87 [label="mse = 0.0\nsamples = 2\nvalue = 10.0"] ;
85 -> 87 ;
88 [label="X[0] <= 11058.0\nmse = 2238.889\nsamples = 3\nvalue = 71.667"] ;
84 -> 88 ;
89 [label="X[5] <= 11.0\nmse = 506.25\nsamples = 2\nvalue = 102.5"] ;
88 -> 89 ;
90 [label="mse = 0.0\nsamples = 1\nvalue = 80.0"] ;
89 -> 90 ;
91 [label="mse = 0.0\nsamples = 1\nvalue = 125.0"] ;
89 -> 91 ;
92 [label="mse = 0.0\nsamples = 1\nvalue = 10.0"] ;
88 -> 92 ;
93 [label="X[0] <= 8404.0\nmse = 46.222\nsamples = 15\nvalue = 10.667"] ;
83 -> 93 ;
94 [label="X[5] <= 15.5\nmse = 44.444\nsamples = 9\nvalue = 13.333"] ;
93 -> 94 ;
95 [label="X[2] <= 7.5\nmse = 24.49\nsamples = 7\nvalue = 15.714"] ;
94 -> 95 ;
96 [label="X[0] <= 3169.0\nmse = 18.75\nsamples = 4\nvalue = 12.5"] ;
95 -> 96 ;
97 [label="mse = 0.0\nsamples = 1\nvalue = 20.0"] ;
96 -> 97 ;
98 [label="mse = 0.0\nsamples = 3\nvalue = 10.0"] ;
96 -> 98 ;
99 [label="mse = 0.0\nsamples = 3\nvalue = 20.0"] ;
95 -> 99 ;
100 [label="X[0] <= 3927.5\nmse = 25.0\nsamples = 2\nvalue = 5.0"] ;
94 -> 100 ;
101 [label="mse = 0.0\nsamples = 1\nvalue = 10.0"] ;
100 -> 101 ;
102 [label="mse = 0.0\nsamples = 1\nvalue = 0.0"] ;
100 -> 102 ;
103 [label="X[0] <= 11143.5\nmse = 22.222\nsamples = 6\nvalue = 6.667"] ;
93 -> 103 ;
104 [label="mse = 0.0\nsamples = 2\nvalue = 0.0"] ;
103 -> 104 ;
105 [label="mse = 0.0\nsamples = 4\nvalue = 10.0"] ;
103 -> 105 ;
106 [label="X[4] <= 10.5\nmse = 103.245\nsamples = 104\nvalue = 8.75"] ;
8 -> 106 ;
107 [label="X[6] <= 7.5\nmse = 79.247\nsamples = 101\nvalue = 8.02"] ;
106 -> 107 ;
108 [label="X[5] <= 9.5\nmse = 24.972\nsamples = 60\nvalue = 5.167"] ;
107 -> 108 ;
109 [label="X[5] <= 4.5\nmse = 23.905\nsamples = 43\nvalue = 6.047"] ;
108 -> 109 ;
110 [label="X[0] <= 953.0\nmse = 24.913\nsamples = 17\nvalue = 4.706"] ;
109 -> 110 ;
111 [label="mse = 0.0\nsamples = 2\nvalue = 0.0"] ;
110 -> 111 ;
112 [label="X[0] <= 3239.5\nmse = 24.889\nsamples = 15\nvalue = 5.333"] ;
110 -> 112 ;
113 [label="X[4] <= 1.5\nmse = 13.889\nsamples = 6\nvalue = 8.333"] ;
112 -> 113 ;
114 [label="X[0] <= 1414.0\nmse = 22.222\nsamples = 3\nvalue = 6.667"] ;
113 -> 114 ;
115 [label="mse = 0.0\nsamples = 1\nvalue = 10.0"] ;
114 -> 115 ;
116 [label="X[3] <= 1.5\nmse = 25.0\nsamples = 2\nvalue = 5.0"] ;
114 -> 116 ;
117 [label="mse = 0.0\nsamples = 1\nvalue = 0.0"] ;
116 -> 117 ;
118 [label="mse = 0.0\nsamples = 1\nvalue = 10.0"] ;
116 -> 118 ;
119 [label="mse = 0.0\nsamples = 3\nvalue = 10.0"] ;
113 -> 119 ;
120 [label="X[0] <= 9200.0\nmse = 22.222\nsamples = 9\nvalue = 3.333"] ;
112 -> 120 ;
121 [label="mse = 0.0\nsamples = 3\nvalue = 0.0"] ;
120 -> 121 ;
122 [label="X[0] <= 11972.0\nmse = 25.0\nsamples = 6\nvalue = 5.0"] ;
120 -> 122 ;
123 [label="mse = 0.0\nsamples = 2\nvalue = 10.0"] ;
122 -> 123 ;
124 [label="X[0] <= 12951.5\nmse = 18.75\nsamples = 4\nvalue = 2.5"] ;
122 -> 124 ;
125 [label="mse = 0.0\nsamples = 3\nvalue = 0.0"] ;
124 -> 125 ;
126 [label="mse = 0.0\nsamples = 1\nvalue = 10.0"] ;
124 -> 126 ;
127 [label="X[0] <= 5896.0\nmse = 21.302\nsamples = 26\nvalue = 6.923"] ;
109 -> 127 ;
128 [label="X[0] <= 436.5\nmse = 24.609\nsamples = 16\nvalue = 5.625"] ;
127 -> 128 ;
129 [label="mse = 0.0\nsamples = 3\nvalue = 10.0"] ;
128 -> 129 ;
130 [label="X[5] <= 6.0\nmse = 24.852\nsamples = 13\nvalue = 4.615"] ;
128 -> 130 ;
131 [label="mse = 0.0\nsamples = 3\nvalue = 10.0"] ;
130 -> 131 ;
132 [label="X[0] <= 963.5\nmse = 21.0\nsamples = 10\nvalue = 3.0"] ;
130 -> 132 ;
133 [label="mse = 0.0\nsamples = 2\nvalue = 0.0"] ;
132 -> 133 ;
134 [label="X[0] <= 1168.0\nmse = 23.438\nsamples = 8\nvalue = 3.75"] ;
132 -> 134 ;
135 [label="mse = 0.0\nsamples = 1\nvalue = 10.0"] ;
134 -> 135 ;
136 [label="X[0] <= 1667.0\nmse = 20.408\nsamples = 7\nvalue = 2.857"] ;
134 -> 136 ;
137 [label="mse = 0.0\nsamples = 2\nvalue = 0.0"] ;
136 -> 137 ;
138 [label="X[0] <= 2206.0\nmse = 24.0\nsamples = 5\nvalue = 4.0"] ;
136 -> 138 ;
139 [label="mse = 0.0\nsamples = 1\nvalue = 10.0"] ;
138 -> 139 ;
140 [label="X[3] <= 1.5\nmse = 18.75\nsamples = 4\nvalue = 2.5"] ;
138 -> 140 ;
141 [label="mse = 0.0\nsamples = 1\nvalue = 10.0"] ;
140 -> 141 ;
142 [label="mse = 0.0\nsamples = 3\nvalue = 0.0"] ;
140 -> 142 ;
143 [label="X[0] <= 8728.5\nmse = 9.0\nsamples = 10\nvalue = 9.0"] ;
127 -> 143 ;
144 [label="X[0] <= 8064.5\nmse = 16.0\nsamples = 5\nvalue = 8.0"] ;
143 -> 144 ;
145 [label="mse = 0.0\nsamples = 4\nvalue = 10.0"] ;
144 -> 145 ;
146 [label="mse = 0.0\nsamples = 1\nvalue = 0.0"] ;
144 -> 146 ;
147 [label="mse = 0.0\nsamples = 5\nvalue = 10.0"] ;
143 -> 147 ;
148 [label="X[3] <= 1.0\nmse = 20.761\nsamples = 17\nvalue = 2.941"] ;
108 -> 148 ;
149 [label="X[0] <= 7087.0\nmse = 25.0\nsamples = 10\nvalue = 5.0"] ;
148 -> 149 ;
150 [label="X[5] <= 15.0\nmse = 23.438\nsamples = 8\nvalue = 3.75"] ;
149 -> 150 ;
151 [label="mse = 0.0\nsamples = 2\nvalue = 0.0"] ;
150 -> 151 ;
152 [label="X[2] <= 6.0\nmse = 25.0\nsamples = 6\nvalue = 5.0"] ;
150 -> 152 ;
153 [label="X[0] <= 1156.0\nmse = 24.0\nsamples = 5\nvalue = 6.0"] ;
152 -> 153 ;
154 [label="X[0] <= 533.0\nmse = 22.222\nsamples = 3\nvalue = 3.333"] ;
153 -> 154 ;
155 [label="mse = 0.0\nsamples = 1\nvalue = 0.0"] ;
154 -> 155 ;
156 [label="X[0] <= 908.5\nmse = 25.0\nsamples = 2\nvalue = 5.0"] ;
154 -> 156 ;
157 [label="mse = 0.0\nsamples = 1\nvalue = 10.0"] ;
156 -> 157 ;
158 [label="mse = 0.0\nsamples = 1\nvalue = 0.0"] ;
156 -> 158 ;
159 [label="mse = 0.0\nsamples = 2\nvalue = 10.0"] ;
153 -> 159 ;
160 [label="mse = 0.0\nsamples = 1\nvalue = 0.0"] ;
152 -> 160 ;
161 [label="mse = 0.0\nsamples = 2\nvalue = 10.0"] ;
149 -> 161 ;
162 [label="mse = 0.0\nsamples = 7\nvalue = 0.0"] ;
148 -> 162 ;
163 [label="X[0] <= 9149.0\nmse = 129.328\nsamples = 41\nvalue = 12.195"] ;
107 -> 163 ;
164 [label="X[6] <= 8.5\nmse = 96.528\nsamples = 36\nvalue = 10.833"] ;
163 -> 164 ;
165 [label="mse = 0.0\nsamples = 1\nvalue = 40.0"] ;
164 -> 165 ;
166 [label="X[3] <= 4.5\nmse = 74.286\nsamples = 35\nvalue = 10.0"] ;
164 -> 166 ;
167 [label="X[6] <= 15.5\nmse = 49.948\nsamples = 31\nvalue = 8.71"] ;
166 -> 167 ;
168 [label="X[0] <= 669.0\nmse = 41.0\nsamples = 20\nvalue = 7.0"] ;
167 -> 168 ;
169 [label="X[6] <= 13.0\nmse = 22.222\nsamples = 3\nvalue = 13.333"] ;
168 -> 169 ;
170 [label="mse = 0.0\nsamples = 2\nvalue = 10.0"] ;
169 -> 170 ;
171 [label="mse = 0.0\nsamples = 1\nvalue = 20.0"] ;
169 -> 171 ;
172 [label="X[0] <= 1116.5\nmse = 35.986\nsamples = 17\nvalue = 5.882"] ;
168 -> 172 ;
173 [label="mse = 0.0\nsamples = 3\nvalue = 0.0"] ;
172 -> 173 ;
174 [label="X[0] <= 2551.5\nmse = 34.694\nsamples = 14\nvalue = 7.143"] ;
172 -> 174 ;
175 [label="X[6] <= 10.0\nmse = 18.75\nsamples = 4\nvalue = 12.5"] ;
174 -> 175 ;
176 [label="mse = 0.0\nsamples = 1\nvalue = 20.0"] ;
175 -> 176 ;
177 [label="mse = 0.0\nsamples = 3\nvalue = 10.0"] ;
175 -> 177 ;
178 [label="X[0] <= 7502.5\nmse = 25.0\nsamples = 10\nvalue = 5.0"] ;
174 -> 178 ;
179 [label="X[2] <= 7.5\nmse = 20.408\nsamples = 7\nvalue = 2.857"] ;
178 -> 179 ;
180 [label="X[0] <= 5449.0\nmse = 13.889\nsamples = 6\nvalue = 1.667"] ;
179 -> 180 ;
181 [label="mse = 0.0\nsamples = 4\nvalue = 0.0"] ;
180 -> 181 ;
182 [label="X[0] <= 6459.0\nmse = 25.0\nsamples = 2\nvalue = 5.0"] ;
180 -> 182 ;
183 [label="mse = 0.0\nsamples = 1\nvalue = 10.0"] ;
182 -> 183 ;
184 [label="mse = 0.0\nsamples = 1\nvalue = 0.0"] ;
182 -> 184 ;
185 [label="mse = 0.0\nsamples = 1\nvalue = 10.0"] ;
179 -> 185 ;
186 [label="mse = 0.0\nsamples = 3\nvalue = 10.0"] ;
178 -> 186 ;
187 [label="X[4] <= 1.5\nmse = 51.24\nsamples = 11\nvalue = 11.818"] ;
167 -> 187 ;
188 [label="X[6] <= 16.5\nmse = 64.0\nsamples = 5\nvalue = 16.0"] ;
187 -> 188 ;
189 [label="X[0] <= 5337.0\nmse = 66.667\nsamples = 3\nvalue = 20.0"] ;
188 -> 189 ;
190 [label="X[5] <= 12.0\nmse = 25.0\nsamples = 2\nvalue = 25.0"] ;
189 -> 190 ;
191 [label="mse = 0.0\nsamples = 1\nvalue = 20.0"] ;
190 -> 191 ;
192 [label="mse = 0.0\nsamples = 1\nvalue = 30.0"] ;
190 -> 192 ;
193 [label="mse = 0.0\nsamples = 1\nvalue = 10.0"] ;
189 -> 193 ;
194 [label="mse = 0.0\nsamples = 2\nvalue = 10.0"] ;
188 -> 194 ;
195 [label="X[4] <= 4.5\nmse = 13.889\nsamples = 6\nvalue = 8.333"] ;
187 -> 195 ;
196 [label="X[6] <= 17.0\nmse = 25.0\nsamples = 2\nvalue = 5.0"] ;
195 -> 196 ;
197 [label="mse = 0.0\nsamples = 1\nvalue = 0.0"] ;
196 -> 197 ;
198 [label="mse = 0.0\nsamples = 1\nvalue = 10.0"] ;
196 -> 198 ;
199 [label="mse = 0.0\nsamples = 4\nvalue = 10.0"] ;
195 -> 199 ;
200 [label="X[6] <= 17.5\nmse = 150.0\nsamples = 4\nvalue = 20.0"] ;
166 -> 200 ;
201 [label="X[0] <= 3844.0\nmse = 22.222\nsamples = 3\nvalue = 13.333"] ;
200 -> 201 ;
202 [label="mse = 0.0\nsamples = 1\nvalue = 20.0"] ;
201 -> 202 ;
203 [label="mse = 0.0\nsamples = 2\nvalue = 10.0"] ;
201 -> 203 ;
204 [label="mse = 0.0\nsamples = 1\nvalue = 40.0"] ;
200 -> 204 ;
205 [label="X[4] <= 4.0\nmse = 256.0\nsamples = 5\nvalue = 22.0"] ;
163 -> 205 ;
206 [label="mse = 0.0\nsamples = 3\nvalue = 10.0"] ;
205 -> 206 ;
207 [label="X[3] <= 1.5\nmse = 100.0\nsamples = 2\nvalue = 40.0"] ;
205 -> 207 ;
208 [label="mse = 0.0\nsamples = 1\nvalue = 50.0"] ;
207 -> 208 ;
209 [label="mse = 0.0\nsamples = 1\nvalue = 30.0"] ;
207 -> 209 ;
210 [label="X[2] <= 3.5\nmse = 288.889\nsamples = 3\nvalue = 33.333"] ;
106 -> 210 ;
211 [label="mse = 0.0\nsamples = 1\nvalue = 10.0"] ;
210 -> 211 ;
212 [label="X[0] <= 4675.5\nmse = 25.0\nsamples = 2\nvalue = 45.0"] ;
210 -> 212 ;
213 [label="mse = 0.0\nsamples = 1\nvalue = 50.0"] ;
212 -> 213 ;
214 [label="mse = 0.0\nsamples = 1\nvalue = 40.0"] ;
212 -> 214 ;
215 [label="X[6] <= 8.5\nmse = 185.854\nsamples = 246\nvalue = 6.809"] ;
7 -> 215 ;
216 [label="X[0] <= 20565.0\nmse = 152.074\nsamples = 205\nvalue = 5.78"] ;
215 -> 216 ;
217 [label="X[5] <= 13.0\nmse = 70.987\nsamples = 124\nvalue = 4.113"] ;
216 -> 217 ;
218 [label="X[4] <= 1.5\nmse = 22.275\nsamples = 87\nvalue = 2.759"] ;
217 -> 218 ;
219 [label="X[5] <= 4.5\nmse = 27.697\nsamples = 53\nvalue = 3.962"] ;
218 -> 219 ;
220 [label="X[3] <= 4.5\nmse = 11.556\nsamples = 15\nvalue = 1.333"] ;
219 -> 220 ;
221 [label="X[6] <= 1.5\nmse = 6.633\nsamples = 14\nvalue = 0.714"] ;
220 -> 221 ;
222 [label="X[0] <= 16636.0\nmse = 25.0\nsamples = 2\nvalue = 5.0"] ;
221 -> 222 ;
223 [label="mse = 0.0\nsamples = 1\nvalue = 0.0"] ;
222 -> 223 ;
224 [label="mse = 0.0\nsamples = 1\nvalue = 10.0"] ;
222 -> 224 ;
225 [label="mse = 0.0\nsamples = 12\nvalue = 0.0"] ;
221 -> 225 ;
226 [label="mse = 0.0\nsamples = 1\nvalue = 10.0"] ;
220 -> 226 ;
227 [label="X[2] <= 6.5\nmse = 30.263\nsamples = 38\nvalue = 5.0"] ;
219 -> 227 ;
228 [label="X[6] <= 5.0\nmse = 23.438\nsamples = 24\nvalue = 3.75"] ;
227 -> 228 ;
229 [label="X[2] <= 2.5\nmse = 24.306\nsamples = 12\nvalue = 5.833"] ;
228 -> 229 ;
230 [label="mse = 0.0\nsamples = 3\nvalue = 10.0"] ;
229 -> 230 ;
231 [label="X[6] <= 1.5\nmse = 24.691\nsamples = 9\nvalue = 4.444"] ;
229 -> 231 ;
232 [label="mse = 0.0\nsamples = 2\nvalue = 0.0"] ;
231 -> 232 ;
233 [label="X[0] <= 15827.0\nmse = 24.49\nsamples = 7\nvalue = 5.714"] ;
231 -> 233 ;
234 [label="mse = 0.0\nsamples = 1\nvalue = 0.0"] ;
233 -> 234 ;
235 [label="X[0] <= 17932.0\nmse = 22.222\nsamples = 6\nvalue = 6.667"] ;
233 -> 235 ;
236 [label="mse = 0.0\nsamples = 3\nvalue = 10.0"] ;
235 -> 236 ;
237 [label="X[0] <= 19928.0\nmse = 22.222\nsamples = 3\nvalue = 3.333"] ;
235 -> 237 ;
238 [label="mse = 0.0\nsamples = 2\nvalue = 0.0"] ;
237 -> 238 ;
239 [label="mse = 0.0\nsamples = 1\nvalue = 10.0"] ;
237 -> 239 ;
240 [label="X[4] <= 0.5\nmse = 13.889\nsamples = 12\nvalue = 1.667"] ;
228 -> 240 ;
241 [label="mse = 0.0\nsamples = 1\nvalue = 10.0"] ;
240 -> 241 ;
242 [label="X[0] <= 19713.0\nmse = 8.264\nsamples = 11\nvalue = 0.909"] ;
240 -> 242 ;
243 [label="mse = 0.0\nsamples = 8\nvalue = 0.0"] ;
242 -> 243 ;
244 [label="X[3] <= 1.5\nmse = 22.222\nsamples = 3\nvalue = 3.333"] ;
242 -> 244 ;
245 [label="mse = 0.0\nsamples = 1\nvalue = 10.0"] ;
244 -> 245 ;
246 [label="mse = 0.0\nsamples = 2\nvalue = 0.0"] ;
244 -> 246 ;
247 [label="X[0] <= 19891.0\nmse = 34.694\nsamples = 14\nvalue = 7.143"] ;
227 -> 247 ;
248 [label="X[3] <= 4.5\nmse = 22.222\nsamples = 9\nvalue = 10.0"] ;
247 -> 248 ;
249 [label="X[3] <= 1.5\nmse = 10.938\nsamples = 8\nvalue = 8.75"] ;
248 -> 249 ;
250 [label="mse = 0.0\nsamples = 5\nvalue = 10.0"] ;
249 -> 250 ;
251 [label="X[2] <= 7.5\nmse = 22.222\nsamples = 3\nvalue = 6.667"] ;
249 -> 251 ;
252 [label="mse = 0.0\nsamples = 1\nvalue = 10.0"] ;
251 -> 252 ;
253 [label="X[0] <= 16195.0\nmse = 25.0\nsamples = 2\nvalue = 5.0"] ;
251 -> 253 ;
254 [label="mse = 0.0\nsamples = 1\nvalue = 10.0"] ;
253 -> 254 ;
255 [label="mse = 0.0\nsamples = 1\nvalue = 0.0"] ;
253 -> 255 ;
256 [label="mse = 0.0\nsamples = 1\nvalue = 20.0"] ;
248 -> 256 ;
257 [label="X[3] <= 2.5\nmse = 16.0\nsamples = 5\nvalue = 2.0"] ;
247 -> 257 ;
258 [label="mse = 0.0\nsamples = 3\nvalue = 0.0"] ;
257 -> 258 ;
259 [label="X[0] <= 20324.0\nmse = 25.0\nsamples = 2\nvalue = 5.0"] ;
257 -> 259 ;
260 [label="mse = 0.0\nsamples = 1\nvalue = 10.0"] ;
259 -> 260 ;
261 [label="mse = 0.0\nsamples = 1\nvalue = 0.0"] ;
259 -> 261 ;
262 [label="X[4] <= 12.5\nmse = 8.045\nsamples = 34\nvalue = 0.882"] ;
218 -> 262 ;
263 [label="X[0] <= 18921.0\nmse = 5.859\nsamples = 32\nvalue = 0.625"] ;
262 -> 263 ;
264 [label="mse = 0.0\nsamples = 22\nvalue = 0.0"] ;
263 -> 264 ;
265 [label="X[0] <= 19136.5\nmse = 16.0\nsamples = 10\nvalue = 2.0"] ;
263 -> 265 ;
266 [label="mse = 0.0\nsamples = 2\nvalue = 10.0"] ;
265 -> 266 ;
267 [label="mse = 0.0\nsamples = 8\nvalue = 0.0"] ;
265 -> 267 ;
268 [label="X[0] <= 18671.0\nmse = 25.0\nsamples = 2\nvalue = 5.0"] ;
262 -> 268 ;
269 [label="mse = 0.0\nsamples = 1\nvalue = 10.0"] ;
268 -> 269 ;
270 [label="mse = 0.0\nsamples = 1\nvalue = 0.0"] ;
268 -> 270 ;
271 [label="X[4] <= 1.5\nmse = 171.074\nsamples = 37\nvalue = 7.297"] ;
217 -> 271 ;
272 [label="X[0] <= 14306.0\nmse = 67.73\nsamples = 28\nvalue = 5.357"] ;
271 -> 272 ;
273 [label="mse = 0.0\nsamples = 1\nvalue = 20.0"] ;
272 -> 273 ;
274 [label="X[2] <= 7.5\nmse = 62.003\nsamples = 27\nvalue = 4.815"] ;
272 -> 274 ;
275 [label="X[0] <= 16431.5\nmse = 55.178\nsamples = 26\nvalue = 4.231"] ;
274 -> 275 ;
276 [label="X[2] <= 5.5\nmse = 9.877\nsamples = 9\nvalue = 1.111"] ;
275 -> 276 ;
277 [label="mse = 0.0\nsamples = 7\nvalue = 0.0"] ;
276 -> 277 ;
278 [label="X[6] <= 3.5\nmse = 25.0\nsamples = 2\nvalue = 5.0"] ;
276 -> 278 ;
279 [label="mse = 0.0\nsamples = 1\nvalue = 0.0"] ;
278 -> 279 ;
280 [label="mse = 0.0\nsamples = 1\nvalue = 10.0"] ;
278 -> 280 ;
281 [label="X[0] <= 17827.0\nmse = 71.28\nsamples = 17\nvalue = 5.882"] ;
275 -> 281 ;
282 [label="X[0] <= 17091.0\nmse = 96.0\nsamples = 5\nvalue = 12.0"] ;
281 -> 282 ;
283 [label="X[2] <= 2.5\nmse = 22.222\nsamples = 3\nvalue = 6.667"] ;
282 -> 283 ;
284 [label="mse = 0.0\nsamples = 2\nvalue = 10.0"] ;
283 -> 284 ;
285 [label="mse = 0.0\nsamples = 1\nvalue = 0.0"] ;
283 -> 285 ;
286 [label="X[6] <= 5.0\nmse = 100.0\nsamples = 2\nvalue = 20.0"] ;
282 -> 286 ;
287 [label="mse = 0.0\nsamples = 1\nvalue = 30.0"] ;
286 -> 287 ;
288 [label="mse = 0.0\nsamples = 1\nvalue = 10.0"] ;
286 -> 288 ;
289 [label="X[2] <= 5.0\nmse = 38.889\nsamples = 12\nvalue = 3.333"] ;
281 -> 289 ;
290 [label="X[0] <= 19296.5\nmse = 55.556\nsamples = 6\nvalue = 6.667"] ;
289 -> 290 ;
291 [label="X[0] <= 18865.0\nmse = 22.222\nsamples = 3\nvalue = 3.333"] ;
290 -> 291 ;
292 [label="mse = 0.0\nsamples = 1\nvalue = 10.0"] ;
291 -> 292 ;
293 [label="mse = 0.0\nsamples = 2\nvalue = 0.0"] ;
291 -> 293 ;
294 [label="X[6] <= 1.5\nmse = 66.667\nsamples = 3\nvalue = 10.0"] ;
290 -> 294 ;
295 [label="X[1] <= 0.5\nmse = 25.0\nsamples = 2\nvalue = 5.0"] ;
294 -> 295 ;
296 [label="mse = 0.0\nsamples = 1\nvalue = 0.0"] ;
295 -> 296 ;
297 [label="mse = 0.0\nsamples = 1\nvalue = 10.0"] ;
295 -> 297 ;
298 [label="mse = 0.0\nsamples = 1\nvalue = 20.0"] ;
294 -> 298 ;
299 [label="mse = 0.0\nsamples = 6\nvalue = 0.0"] ;
289 -> 299 ;
300 [label="mse = 0.0\nsamples = 1\nvalue = 20.0"] ;
274 -> 300 ;
301 [label="X[2] <= 5.5\nmse = 444.444\nsamples = 9\nvalue = 13.333"] ;
271 -> 301 ;
302 [label="X[0] <= 18730.5\nmse = 866.667\nsamples = 3\nvalue = 30.0"] ;
301 -> 302 ;
303 [label="mse = 0.0\nsamples = 1\nvalue = 70.0"] ;
302 -> 303 ;
304 [label="X[5] <= 16.0\nmse = 100.0\nsamples = 2\nvalue = 10.0"] ;
302 -> 304 ;
305 [label="mse = 0.0\nsamples = 1\nvalue = 20.0"] ;
304 -> 305 ;
306 [label="mse = 0.0\nsamples = 1\nvalue = 0.0"] ;
304 -> 306 ;
307 [label="X[5] <= 18.5\nmse = 25.0\nsamples = 6\nvalue = 5.0"] ;
301 -> 307 ;
308 [label="mse = 0.0\nsamples = 3\nvalue = 10.0"] ;
307 -> 308 ;
309 [label="mse = 0.0\nsamples = 3\nvalue = 0.0"] ;
307 -> 309 ;
310 [label="X[0] <= 20905.5\nmse = 265.432\nsamples = 81\nvalue = 8.333"] ;
216 -> 310 ;
311 [label="X[4] <= 4.5\nmse = 1670.408\nsamples = 7\nvalue = 27.857"] ;
310 -> 311 ;
312 [label="X[4] <= 0.5\nmse = 113.889\nsamples = 6\nvalue = 11.667"] ;
311 -> 312 ;
313 [label="mse = 0.0\nsamples = 1\nvalue = 30.0"] ;
312 -> 313 ;
314 [label="X[0] <= 20869.0\nmse = 56.0\nsamples = 5\nvalue = 8.0"] ;
312 -> 314 ;
315 [label="X[0] <= 20746.5\nmse = 25.0\nsamples = 4\nvalue = 5.0"] ;
314 -> 315 ;
316 [label="mse = 0.0\nsamples = 2\nvalue = 10.0"] ;
315 -> 316 ;
317 [label="mse = 0.0\nsamples = 2\nvalue = 0.0"] ;
315 -> 317 ;
318 [label="mse = 0.0\nsamples = 1\nvalue = 20.0"] ;
314 -> 318 ;
319 [label="mse = 0.0\nsamples = 1\nvalue = 125.0"] ;
311 -> 319 ;
320 [label="X[6] <= 2.0\nmse = 93.061\nsamples = 74\nvalue = 6.486"] ;
310 -> 320 ;
321 [label="X[0] <= 22521.0\nmse = 246.914\nsamples = 9\nvalue = 15.556"] ;
320 -> 321 ;
322 [label="X[4] <= 4.5\nmse = 55.556\nsamples = 6\nvalue = 6.667"] ;
321 -> 322 ;
323 [label="X[0] <= 21580.0\nmse = 24.0\nsamples = 5\nvalue = 4.0"] ;
322 -> 323 ;
324 [label="mse = 0.0\nsamples = 2\nvalue = 0.0"] ;
323 -> 324 ;
325 [label="X[2] <= 5.5\nmse = 22.222\nsamples = 3\nvalue = 6.667"] ;
323 -> 325 ;
326 [label="mse = 0.0\nsamples = 2\nvalue = 10.0"] ;
325 -> 326 ;
327 [label="mse = 0.0\nsamples = 1\nvalue = 0.0"] ;
325 -> 327 ;
328 [label="mse = 0.0\nsamples = 1\nvalue = 20.0"] ;
322 -> 328 ;
329 [label="X[0] <= 22652.0\nmse = 155.556\nsamples = 3\nvalue = 33.333"] ;
321 -> 329 ;
330 [label="mse = 0.0\nsamples = 1\nvalue = 50.0"] ;
329 -> 330 ;
331 [label="X[0] <= 22898.5\nmse = 25.0\nsamples = 2\nvalue = 25.0"] ;
329 -> 331 ;
332 [label="mse = 0.0\nsamples = 1\nvalue = 30.0"] ;
331 -> 332 ;
333 [label="mse = 0.0\nsamples = 1\nvalue = 20.0"] ;
331 -> 333 ;
334 [label="X[3] <= 1.0\nmse = 58.793\nsamples = 65\nvalue = 5.231"] ;
320 -> 334 ;
335 [label="X[6] <= 5.5\nmse = 77.778\nsamples = 36\nvalue = 6.667"] ;
334 -> 335 ;
336 [label="X[5] <= 2.5\nmse = 147.222\nsamples = 12\nvalue = 11.667"] ;
335 -> 336 ;
337 [label="mse = 0.0\nsamples = 1\nvalue = 40.0"] ;
336 -> 337 ;
338 [label="X[0] <= 23095.0\nmse = 80.992\nsamples = 11\nvalue = 9.091"] ;
336 -> 338 ;
339 [label="X[4] <= 1.5\nmse = 41.0\nsamples = 10\nvalue = 7.0"] ;
338 -> 339 ;
340 [label="X[0] <= 21227.5\nmse = 25.0\nsamples = 6\nvalue = 5.0"] ;
339 -> 340 ;
341 [label="mse = 0.0\nsamples = 1\nvalue = 10.0"] ;
340 -> 341 ;
342 [label="X[0] <= 21618.0\nmse = 24.0\nsamples = 5\nvalue = 4.0"] ;
340 -> 342 ;
343 [label="mse = 0.0\nsamples = 2\nvalue = 0.0"] ;
342 -> 343 ;
344 [label="X[2] <= 6.5\nmse = 22.222\nsamples = 3\nvalue = 6.667"] ;
342 -> 344 ;
345 [label="mse = 0.0\nsamples = 2\nvalue = 10.0"] ;
344 -> 345 ;
346 [label="mse = 0.0\nsamples = 1\nvalue = 0.0"] ;
344 -> 346 ;
347 [label="X[5] <= 15.0\nmse = 50.0\nsamples = 4\nvalue = 10.0"] ;
339 -> 347 ;
348 [label="X[4] <= 4.5\nmse = 22.222\nsamples = 3\nvalue = 6.667"] ;
347 -> 348 ;
349 [label="mse = 0.0\nsamples = 2\nvalue = 10.0"] ;
348 -> 349 ;
350 [label="mse = 0.0\nsamples = 1\nvalue = 0.0"] ;
348 -> 350 ;
351 [label="mse = 0.0\nsamples = 1\nvalue = 20.0"] ;
347 -> 351 ;
352 [label="mse = 0.0\nsamples = 1\nvalue = 30.0"] ;
338 -> 352 ;
353 [label="X[5] <= 15.0\nmse = 24.306\nsamples = 24\nvalue = 4.167"] ;
335 -> 353 ;
354 [label="X[5] <= 6.0\nmse = 21.607\nsamples = 19\nvalue = 3.158"] ;
353 -> 354 ;
355 [label="X[4] <= 4.5\nmse = 24.49\nsamples = 7\nvalue = 5.714"] ;
354 -> 355 ;
356 [label="X[0] <= 21880.0\nmse = 24.0\nsamples = 5\nvalue = 4.0"] ;
355 -> 356 ;
357 [label="mse = 0.0\nsamples = 2\nvalue = 0.0"] ;
356 -> 357 ;
358 [label="X[0] <= 22238.5\nmse = 22.222\nsamples = 3\nvalue = 6.667"] ;
356 -> 358 ;
359 [label="mse = 0.0\nsamples = 2\nvalue = 10.0"] ;
358 -> 359 ;
360 [label="mse = 0.0\nsamples = 1\nvalue = 0.0"] ;
358 -> 360 ;
361 [label="mse = 0.0\nsamples = 2\nvalue = 10.0"] ;
355 -> 361 ;
362 [label="X[2] <= 5.5\nmse = 13.889\nsamples = 12\nvalue = 1.667"] ;
354 -> 362 ;
363 [label="X[0] <= 21584.0\nmse = 20.408\nsamples = 7\nvalue = 2.857"] ;
362 -> 363 ;
364 [label="mse = 0.0\nsamples = 2\nvalue = 0.0"] ;
363 -> 364 ;
365 [label="X[0] <= 22972.5\nmse = 24.0\nsamples = 5\nvalue = 4.0"] ;
363 -> 365 ;
366 [label="X[0] <= 22404.5\nmse = 22.222\nsamples = 3\nvalue = 6.667"] ;
365 -> 366 ;
367 [label="mse = 0.0\nsamples = 1\nvalue = 10.0"] ;
366 -> 367 ;
368 [label="X[0] <= 22640.0\nmse = 25.0\nsamples = 2\nvalue = 5.0"] ;
366 -> 368 ;
369 [label="mse = 0.0\nsamples = 1\nvalue = 0.0"] ;
368 -> 369 ;
370 [label="mse = 0.0\nsamples = 1\nvalue = 10.0"] ;
368 -> 370 ;
371 [label="mse = 0.0\nsamples = 2\nvalue = 0.0"] ;
365 -> 371 ;
372 [label="mse = 0.0\nsamples = 5\nvalue = 0.0"] ;
362 -> 372 ;
373 [label="X[2] <= 7.5\nmse = 16.0\nsamples = 5\nvalue = 8.0"] ;
353 -> 373 ;
374 [label="mse = 0.0\nsamples = 4\nvalue = 10.0"] ;
373 -> 374 ;
375 [label="mse = 0.0\nsamples = 1\nvalue = 0.0"] ;
373 -> 375 ;
376 [label="X[2] <= 4.5\nmse = 29.489\nsamples = 29\nvalue = 3.448"] ;
334 -> 376 ;
377 [label="X[0] <= 22867.5\nmse = 36.678\nsamples = 17\nvalue = 5.294"] ;
376 -> 377 ;
378 [label="X[6] <= 5.0\nmse = 37.245\nsamples = 14\nvalue = 6.429"] ;
377 -> 378 ;
379 [label="X[0] <= 22558.5\nmse = 24.49\nsamples = 7\nvalue = 4.286"] ;
378 -> 379 ;
380 [label="X[0] <= 21338.5\nmse = 22.222\nsamples = 6\nvalue = 3.333"] ;
379 -> 380 ;
381 [label="X[0] <= 20994.0\nmse = 25.0\nsamples = 4\nvalue = 5.0"] ;
380 -> 381 ;
382 [label="mse = 0.0\nsamples = 1\nvalue = 0.0"] ;
381 -> 382 ;
383 [label="X[0] <= 21062.0\nmse = 22.222\nsamples = 3\nvalue = 6.667"] ;
381 -> 383 ;
384 [label="mse = 0.0\nsamples = 1\nvalue = 10.0"] ;
383 -> 384 ;
385 [label="X[2] <= 2.5\nmse = 25.0\nsamples = 2\nvalue = 5.0"] ;
383 -> 385 ;
386 [label="mse = 0.0\nsamples = 1\nvalue = 0.0"] ;
385 -> 386 ;
387 [label="mse = 0.0\nsamples = 1\nvalue = 10.0"] ;
385 -> 387 ;
388 [label="mse = 0.0\nsamples = 2\nvalue = 0.0"] ;
380 -> 388 ;
389 [label="mse = 0.0\nsamples = 1\nvalue = 10.0"] ;
379 -> 389 ;
390 [label="X[5] <= 17.0\nmse = 40.816\nsamples = 7\nvalue = 8.571"] ;
378 -> 390 ;
391 [label="X[5] <= 11.5\nmse = 33.333\nsamples = 6\nvalue = 10.0"] ;
390 -> 391 ;
392 [label="X[5] <= 5.5\nmse = 16.0\nsamples = 5\nvalue = 8.0"] ;
391 -> 392 ;
393 [label="X[0] <= 21073.5\nmse = 25.0\nsamples = 2\nvalue = 5.0"] ;
392 -> 393 ;
394 [label="mse = 0.0\nsamples = 1\nvalue = 10.0"] ;
393 -> 394 ;
395 [label="mse = 0.0\nsamples = 1\nvalue = 0.0"] ;
393 -> 395 ;
396 [label="mse = 0.0\nsamples = 3\nvalue = 10.0"] ;
392 -> 396 ;
397 [label="mse = 0.0\nsamples = 1\nvalue = 20.0"] ;
391 -> 397 ;
398 [label="mse = 0.0\nsamples = 1\nvalue = 0.0"] ;
390 -> 398 ;
399 [label="mse = 0.0\nsamples = 3\nvalue = 0.0"] ;
377 -> 399 ;
400 [label="X[1] <= 0.5\nmse = 7.639\nsamples = 12\nvalue = 0.833"] ;
376 -> 400 ;
401 [label="X[0] <= 22035.5\nmse = 25.0\nsamples = 2\nvalue = 5.0"] ;
400 -> 401 ;
402 [label="mse = 0.0\nsamples = 1\nvalue = 0.0"] ;
401 -> 402 ;
403 [label="mse = 0.0\nsamples = 1\nvalue = 10.0"] ;
401 -> 403 ;
404 [label="mse = 0.0\nsamples = 10\nvalue = 0.0"] ;
400 -> 404 ;
405 [label="X[0] <= 17955.5\nmse = 323.022\nsamples = 41\nvalue = 11.951"] ;
215 -> 405 ;
406 [label="X[0] <= 17126.0\nmse = 213.889\nsamples = 12\nvalue = 18.333"] ;
405 -> 406 ;
407 [label="X[2] <= 6.5\nmse = 177.778\nsamples = 9\nvalue = 13.333"] ;
406 -> 407 ;
408 [label="X[5] <= 10.5\nmse = 163.265\nsamples = 7\nvalue = 17.143"] ;
407 -> 408 ;
409 [label="X[6] <= 11.5\nmse = 155.556\nsamples = 3\nvalue = 26.667"] ;
408 -> 409 ;
410 [label="mse = 0.0\nsamples = 1\nvalue = 10.0"] ;
409 -> 410 ;
411 [label="X[0] <= 15302.0\nmse = 25.0\nsamples = 2\nvalue = 35.0"] ;
409 -> 411 ;
412 [label="mse = 0.0\nsamples = 1\nvalue = 30.0"] ;
411 -> 412 ;
413 [label="mse = 0.0\nsamples = 1\nvalue = 40.0"] ;
411 -> 413 ;
414 [label="X[1] <= 1.5\nmse = 50.0\nsamples = 4\nvalue = 10.0"] ;
408 -> 414 ;
415 [label="X[6] <= 13.0\nmse = 22.222\nsamples = 3\nvalue = 13.333"] ;
414 -> 415 ;
416 [label="mse = 0.0\nsamples = 2\nvalue = 10.0"] ;
415 -> 416 ;
417 [label="mse = 0.0\nsamples = 1\nvalue = 20.0"] ;
415 -> 417 ;
418 [label="mse = 0.0\nsamples = 1\nvalue = 0.0"] ;
414 -> 418 ;
419 [label="mse = 0.0\nsamples = 2\nvalue = 0.0"] ;
407 -> 419 ;
420 [label="X[5] <= 6.5\nmse = 22.222\nsamples = 3\nvalue = 33.333"] ;
406 -> 420 ;
421 [label="mse = 0.0\nsamples = 1\nvalue = 40.0"] ;
420 -> 421 ;
422 [label="mse = 0.0\nsamples = 2\nvalue = 30.0"] ;
420 -> 422 ;
423 [label="X[5] <= 4.5\nmse = 344.352\nsamples = 29\nvalue = 9.31"] ;
405 -> 423 ;
424 [label="X[0] <= 18679.0\nmse = 9.877\nsamples = 9\nvalue = 1.111"] ;
423 -> 424 ;
425 [label="X[6] <= 16.5\nmse = 25.0\nsamples = 2\nvalue = 5.0"] ;
424 -> 425 ;
426 [label="mse = 0.0\nsamples = 1\nvalue = 0.0"] ;
425 -> 426 ;
427 [label="mse = 0.0\nsamples = 1\nvalue = 10.0"] ;
425 -> 427 ;
428 [label="mse = 0.0\nsamples = 7\nvalue = 0.0"] ;
424 -> 428 ;
429 [label="X[0] <= 21305.0\nmse = 451.0\nsamples = 20\nvalue = 13.0"] ;
423 -> 429 ;
430 [label="X[0] <= 19065.5\nmse = 24.0\nsamples = 10\nvalue = 6.0"] ;
429 -> 430 ;
431 [label="X[6] <= 15.5\nmse = 18.75\nsamples = 4\nvalue = 2.5"] ;
430 -> 431 ;
432 [label="mse = 0.0\nsamples = 3\nvalue = 0.0"] ;
431 -> 432 ;
433 [label="mse = 0.0\nsamples = 1\nvalue = 10.0"] ;
431 -> 433 ;
434 [label="X[0] <= 20282.5\nmse = 13.889\nsamples = 6\nvalue = 8.333"] ;
430 -> 434 ;
435 [label="mse = 0.0\nsamples = 4\nvalue = 10.0"] ;
434 -> 435 ;
436 [label="X[6] <= 9.5\nmse = 25.0\nsamples = 2\nvalue = 5.0"] ;
434 -> 436 ;
437 [label="mse = 0.0\nsamples = 1\nvalue = 10.0"] ;
436 -> 437 ;
438 [label="mse = 0.0\nsamples = 1\nvalue = 0.0"] ;
436 -> 438 ;
439 [label="X[0] <= 21421.0\nmse = 780.0\nsamples = 10\nvalue = 20.0"] ;
429 -> 439 ;
440 [label="mse = 0.0\nsamples = 1\nvalue = 100.0"] ;
439 -> 440 ;
441 [label="X[6] <= 10.5\nmse = 76.543\nsamples = 9\nvalue = 11.111"] ;
439 -> 441 ;
442 [label="mse = 0.0\nsamples = 1\nvalue = 30.0"] ;
441 -> 442 ;
443 [label="X[0] <= 21512.0\nmse = 35.938\nsamples = 8\nvalue = 8.75"] ;
441 -> 443 ;
444 [label="mse = 0.0\nsamples = 1\nvalue = 20.0"] ;
443 -> 444 ;
445 [label="X[5] <= 17.5\nmse = 20.408\nsamples = 7\nvalue = 7.143"] ;
443 -> 445 ;
446 [label="mse = 0.0\nsamples = 4\nvalue = 10.0"] ;
445 -> 446 ;
447 [label="X[0] <= 21709.0\nmse = 22.222\nsamples = 3\nvalue = 3.333"] ;
445 -> 447 ;
448 [label="mse = 0.0\nsamples = 1\nvalue = 10.0"] ;
447 -> 448 ;
449 [label="mse = 0.0\nsamples = 2\nvalue = 0.0"] ;
447 -> 449 ;
450 [label="X[4] <= 12.5\nmse = 560.965\nsamples = 208\nvalue = 14.423"] ;
6 -> 450 ;
451 [label="X[6] <= 7.5\nmse = 398.86\nsamples = 200\nvalue = 13.3"] ;
450 -> 451 ;
452 [label="X[6] <= 6.0\nmse = 333.616\nsamples = 170\nvalue = 11.176"] ;
451 -> 452 ;
453 [label="X[5] <= 3.0\nmse = 481.693\nsamples = 86\nvalue = 15.93"] ;
452 -> 453 ;
454 [label="X[3] <= 0.5\nmse = 1892.188\nsamples = 4\nvalue = 53.75"] ;
453 -> 454 ;
455 [label="mse = 0.0\nsamples = 1\nvalue = 125.0"] ;
454 -> 455 ;
456 [label="X[3] <= 2.0\nmse = 266.667\nsamples = 3\nvalue = 30.0"] ;
454 -> 456 ;
457 [label="mse = 0.0\nsamples = 1\nvalue = 50.0"] ;
456 -> 457 ;
458 [label="X[8] <= 2.5\nmse = 100.0\nsamples = 2\nvalue = 20.0"] ;
456 -> 458 ;
459 [label="mse = 0.0\nsamples = 1\nvalue = 10.0"] ;
458 -> 459 ;
460 [label="mse = 0.0\nsamples = 1\nvalue = 30.0"] ;
458 -> 460 ;
461 [label="X[0] <= 23049.5\nmse = 339.712\nsamples = 82\nvalue = 14.085"] ;
453 -> 461 ;
462 [label="X[2] <= 7.5\nmse = 199.055\nsamples = 77\nvalue = 12.727"] ;
461 -> 462 ;
463 [label="X[6] <= 2.0\nmse = 121.96\nsamples = 71\nvalue = 11.408"] ;
462 -> 463 ;
464 [label="X[4] <= 4.5\nmse = 85.444\nsamples = 23\nvalue = 5.652"] ;
463 -> 464 ;
465 [label="X[2] <= 2.5\nmse = 20.761\nsamples = 17\nvalue = 2.941"] ;
464 -> 465 ;
466 [label="mse = 0.0\nsamples = 2\nvalue = 10.0"] ;
465 -> 466 ;
467 [label="X[0] <= 4706.0\nmse = 16.0\nsamples = 15\nvalue = 2.0"] ;
465 -> 467 ;
468 [label="X[5] <= 16.5\nmse = 18.75\nsamples = 4\nvalue = 7.5"] ;
467 -> 468 ;
469 [label="mse = 0.0\nsamples = 3\nvalue = 10.0"] ;
468 -> 469 ;
470 [label="mse = 0.0\nsamples = 1\nvalue = 0.0"] ;
468 -> 470 ;
471 [label="mse = 0.0\nsamples = 11\nvalue = 0.0"] ;
467 -> 471 ;
472 [label="X[5] <= 15.5\nmse = 188.889\nsamples = 6\nvalue = 13.333"] ;
464 -> 472 ;
473 [label="X[6] <= 0.5\nmse = 25.0\nsamples = 4\nvalue = 5.0"] ;
472 -> 473 ;
474 [label="mse = 0.0\nsamples = 2\nvalue = 0.0"] ;
473 -> 474 ;
475 [label="mse = 0.0\nsamples = 2\nvalue = 10.0"] ;
473 -> 475 ;
476 [label="X[5] <= 17.0\nmse = 100.0\nsamples = 2\nvalue = 30.0"] ;
472 -> 476 ;
477 [label="mse = 0.0\nsamples = 1\nvalue = 40.0"] ;
476 -> 477 ;
478 [label="mse = 0.0\nsamples = 1\nvalue = 20.0"] ;
476 -> 478 ;
479 [label="X[8] <= 3.5\nmse = 115.972\nsamples = 48\nvalue = 14.167"] ;
463 -> 479 ;
480 [label="X[4] <= 3.5\nmse = 111.312\nsamples = 44\nvalue = 15.227"] ;
479 -> 480 ;
481 [label="X[2] <= 3.5\nmse = 111.769\nsamples = 39\nvalue = 14.359"] ;
480 -> 481 ;
482 [label="X[0] <= 10198.5\nmse = 20.408\nsamples = 7\nvalue = 7.143"] ;
481 -> 482 ;
483 [label="mse = 0.0\nsamples = 1\nvalue = 0.0"] ;
482 -> 483 ;
484 [label="X[0] <= 17630.0\nmse = 13.889\nsamples = 6\nvalue = 8.333"] ;
482 -> 484 ;
485 [label="mse = 0.0\nsamples = 4\nvalue = 10.0"] ;
484 -> 485 ;
486 [label="X[3] <= 4.5\nmse = 25.0\nsamples = 2\nvalue = 5.0"] ;
484 -> 486 ;
487 [label="mse = 0.0\nsamples = 1\nvalue = 0.0"] ;
486 -> 487 ;
488 [label="mse = 0.0\nsamples = 1\nvalue = 10.0"] ;
486 -> 488 ;
489 [label="X[5] <= 4.5\nmse = 117.871\nsamples = 32\nvalue = 15.938"] ;
481 -> 489 ;
490 [label="mse = 0.0\nsamples = 1\nvalue = 0.0"] ;
489 -> 490 ;
491 [label="X[0] <= 1823.5\nmse = 113.215\nsamples = 31\nvalue = 16.452"] ;
489 -> 491 ;
492 [label="X[0] <= 1219.0\nmse = 25.0\nsamples = 2\nvalue = 5.0"] ;
491 -> 492 ;
493 [label="mse = 0.0\nsamples = 1\nvalue = 10.0"] ;
492 -> 493 ;
494 [label="mse = 0.0\nsamples = 1\nvalue = 0.0"] ;
492 -> 494 ;
495 [label="X[0] <= 4556.0\nmse = 109.631\nsamples = 29\nvalue = 17.241"] ;
491 -> 495 ;
496 [label="X[8] <= 2.5\nmse = 100.0\nsamples = 2\nvalue = 40.0"] ;
495 -> 496 ;
497 [label="mse = 0.0\nsamples = 1\nvalue = 50.0"] ;
496 -> 497 ;
498 [label="mse = 0.0\nsamples = 1\nvalue = 30.0"] ;
496 -> 498 ;
499 [label="X[2] <= 6.5\nmse = 69.136\nsamples = 27\nvalue = 15.556"] ;
495 -> 499 ;
500 [label="X[3] <= 1.5\nmse = 113.889\nsamples = 12\nvalue = 18.333"] ;
499 -> 500 ;
501 [label="X[0] <= 9496.0\nmse = 155.102\nsamples = 7\nvalue = 21.429"] ;
500 -> 501 ;
502 [label="mse = 0.0\nsamples = 1\nvalue = 40.0"] ;
501 -> 502 ;
503 [label="X[0] <= 17794.5\nmse = 113.889\nsamples = 6\nvalue = 18.333"] ;
501 -> 503 ;
504 [label="mse = 0.0\nsamples = 3\nvalue = 10.0"] ;
503 -> 504 ;
505 [label="X[2] <= 5.0\nmse = 88.889\nsamples = 3\nvalue = 26.667"] ;
503 -> 505 ;
506 [label="X[5] <= 7.5\nmse = 100.0\nsamples = 2\nvalue = 30.0"] ;
505 -> 506 ;
507 [label="mse = 0.0\nsamples = 1\nvalue = 40.0"] ;
506 -> 507 ;
508 [label="mse = 0.0\nsamples = 1\nvalue = 20.0"] ;
506 -> 508 ;
509 [label="mse = 0.0\nsamples = 1\nvalue = 20.0"] ;
505 -> 509 ;
510 [label="X[5] <= 17.0\nmse = 24.0\nsamples = 5\nvalue = 14.0"] ;
500 -> 510 ;
511 [label="X[2] <= 5.0\nmse = 18.75\nsamples = 4\nvalue = 12.5"] ;
510 -> 511 ;
512 [label="mse = 0.0\nsamples = 3\nvalue = 10.0"] ;
511 -> 512 ;
513 [label="mse = 0.0\nsamples = 1\nvalue = 20.0"] ;
511 -> 513 ;
514 [label="mse = 0.0\nsamples = 1\nvalue = 20.0"] ;
510 -> 514 ;
515 [label="X[5] <= 17.0\nmse = 22.222\nsamples = 15\nvalue = 13.333"] ;
499 -> 515 ;
516 [label="X[0] <= 18986.0\nmse = 18.75\nsamples = 4\nvalue = 17.5"] ;
515 -> 516 ;
517 [label="mse = 0.0\nsamples = 2\nvalue = 20.0"] ;
516 -> 517 ;
518 [label="X[0] <= 20406.5\nmse = 25.0\nsamples = 2\nvalue = 15.0"] ;
516 -> 518 ;
519 [label="mse = 0.0\nsamples = 1\nvalue = 10.0"] ;
518 -> 519 ;
520 [label="mse = 0.0\nsamples = 1\nvalue = 20.0"] ;
518 -> 520 ;
521 [label="X[0] <= 11496.0\nmse = 14.876\nsamples = 11\nvalue = 11.818"] ;
515 -> 521 ;
522 [label="X[0] <= 6498.0\nmse = 24.0\nsamples = 5\nvalue = 14.0"] ;
521 -> 522 ;
523 [label="mse = 0.0\nsamples = 2\nvalue = 10.0"] ;
522 -> 523 ;
524 [label="X[3] <= 1.5\nmse = 22.222\nsamples = 3\nvalue = 16.667"] ;
522 -> 524 ;
525 [label="X[0] <= 9241.0\nmse = 25.0\nsamples = 2\nvalue = 15.0"] ;
524 -> 525 ;
526 [label="mse = 0.0\nsamples = 1\nvalue = 10.0"] ;
525 -> 526 ;
527 [label="mse = 0.0\nsamples = 1\nvalue = 20.0"] ;
525 -> 527 ;
528 [label="mse = 0.0\nsamples = 1\nvalue = 20.0"] ;
524 -> 528 ;
529 [label="mse = 0.0\nsamples = 6\nvalue = 10.0"] ;
521 -> 529 ;
530 [label="X[0] <= 1588.0\nmse = 56.0\nsamples = 5\nvalue = 22.0"] ;
480 -> 530 ;
531 [label="mse = 0.0\nsamples = 1\nvalue = 10.0"] ;
530 -> 531 ;
532 [label="X[2] <= 0.5\nmse = 25.0\nsamples = 4\nvalue = 25.0"] ;
530 -> 532 ;
533 [label="mse = 0.0\nsamples = 1\nvalue = 20.0"] ;
532 -> 533 ;
534 [label="X[0] <= 2516.0\nmse = 22.222\nsamples = 3\nvalue = 26.667"] ;
532 -> 534 ;
535 [label="mse = 0.0\nsamples = 1\nvalue = 20.0"] ;
534 -> 535 ;
536 [label="mse = 0.0\nsamples = 2\nvalue = 30.0"] ;
534 -> 536 ;
537 [label="X[2] <= 0.5\nmse = 18.75\nsamples = 4\nvalue = 2.5"] ;
479 -> 537 ;
538 [label="mse = 0.0\nsamples = 1\nvalue = 10.0"] ;
537 -> 538 ;
539 [label="mse = 0.0\nsamples = 3\nvalue = 0.0"] ;
537 -> 539 ;
540 [label="X[3] <= 1.5\nmse = 847.222\nsamples = 6\nvalue = 28.333"] ;
462 -> 540 ;
541 [label="X[6] <= 2.5\nmse = 422.222\nsamples = 3\nvalue = 53.333"] ;
540 -> 541 ;
542 [label="X[0] <= 3614.5\nmse = 100.0\nsamples = 2\nvalue = 40.0"] ;
541 -> 542 ;
543 [label="mse = 0.0\nsamples = 1\nvalue = 30.0"] ;
542 -> 543 ;
544 [label="mse = 0.0\nsamples = 1\nvalue = 50.0"] ;
542 -> 544 ;
545 [label="mse = 0.0\nsamples = 1\nvalue = 80.0"] ;
541 -> 545 ;
546 [label="X[4] <= 5.0\nmse = 22.222\nsamples = 3\nvalue = 3.333"] ;
540 -> 546 ;
547 [label="mse = 0.0\nsamples = 2\nvalue = 0.0"] ;
546 -> 547 ;
548 [label="mse = 0.0\nsamples = 1\nvalue = 10.0"] ;
546 -> 548 ;
549 [label="X[0] <= 23388.5\nmse = 2040.0\nsamples = 5\nvalue = 35.0"] ;
461 -> 549 ;
550 [label="mse = 0.0\nsamples = 1\nvalue = 125.0"] ;
549 -> 550 ;
551 [label="X[3] <= 1.5\nmse = 18.75\nsamples = 4\nvalue = 12.5"] ;
549 -> 551 ;
552 [label="mse = 0.0\nsamples = 3\nvalue = 10.0"] ;
551 -> 552 ;
553 [label="mse = 0.0\nsamples = 1\nvalue = 20.0"] ;
551 -> 553 ;
554 [label="X[5] <= 4.5\nmse = 135.19\nsamples = 84\nvalue = 6.31"] ;
452 -> 554 ;
555 [label="X[4] <= 7.5\nmse = 433.333\nsamples = 18\nvalue = 10.0"] ;
554 -> 555 ;
556 [label="X[4] <= 0.5\nmse = 67.347\nsamples = 14\nvalue = 4.286"] ;
555 -> 556 ;
557 [label="mse = 0.0\nsamples = 1\nvalue = 30.0"] ;
556 -> 557 ;
558 [label="X[8] <= 12.0\nmse = 17.751\nsamples = 13\nvalue = 2.308"] ;
556 -> 558 ;
559 [label="X[4] <= 1.5\nmse = 9.0\nsamples = 10\nvalue = 1.0"] ;
558 -> 559 ;
560 [label="mse = 0.0\nsamples = 7\nvalue = 0.0"] ;
559 -> 560 ;
561 [label="X[8] <= 2.5\nmse = 22.222\nsamples = 3\nvalue = 3.333"] ;
559 -> 561 ;
562 [label="mse = 0.0\nsamples = 1\nvalue = 10.0"] ;
561 -> 562 ;
563 [label="mse = 0.0\nsamples = 2\nvalue = 0.0"] ;
561 -> 563 ;
564 [label="X[3] <= 4.5\nmse = 22.222\nsamples = 3\nvalue = 6.667"] ;
558 -> 564 ;
565 [label="mse = 0.0\nsamples = 2\nvalue = 10.0"] ;
564 -> 565 ;
566 [label="mse = 0.0\nsamples = 1\nvalue = 0.0"] ;
564 -> 566 ;
567 [label="X[8] <= 2.5\nmse = 1200.0\nsamples = 4\nvalue = 30.0"] ;
555 -> 567 ;
568 [label="mse = 0.0\nsamples = 1\nvalue = 90.0"] ;
567 -> 568 ;
569 [label="mse = 0.0\nsamples = 3\nvalue = 10.0"] ;
567 -> 569 ;
570 [label="X[0] <= 5974.5\nmse = 49.151\nsamples = 66\nvalue = 5.303"] ;
554 -> 570 ;
571 [label="X[0] <= 5372.5\nmse = 116.837\nsamples = 14\nvalue = 7.857"] ;
570 -> 571 ;
572 [label="X[4] <= 4.0\nmse = 42.975\nsamples = 11\nvalue = 4.545"] ;
571 -> 572 ;
573 [label="X[3] <= 1.5\nmse = 47.222\nsamples = 6\nvalue = 8.333"] ;
572 -> 573 ;
574 [label="X[2] <= 6.0\nmse = 22.222\nsamples = 3\nvalue = 3.333"] ;
573 -> 574 ;
575 [label="mse = 0.0\nsamples = 1\nvalue = 0.0"] ;
574 -> 575 ;
576 [label="X[0] <= 2978.5\nmse = 25.0\nsamples = 2\nvalue = 5.0"] ;
574 -> 576 ;
577 [label="mse = 0.0\nsamples = 1\nvalue = 10.0"] ;
576 -> 577 ;
578 [label="mse = 0.0\nsamples = 1\nvalue = 0.0"] ;
576 -> 578 ;
579 [label="X[5] <= 16.5\nmse = 22.222\nsamples = 3\nvalue = 13.333"] ;
573 -> 579 ;
580 [label="mse = 0.0\nsamples = 2\nvalue = 10.0"] ;
579 -> 580 ;
581 [label="mse = 0.0\nsamples = 1\nvalue = 20.0"] ;
579 -> 581 ;
582 [label="mse = 0.0\nsamples = 5\nvalue = 0.0"] ;
572 -> 582 ;
583 [label="X[8] <= 3.5\nmse = 200.0\nsamples = 3\nvalue = 20.0"] ;
571 -> 583 ;
584 [label="mse = 0.0\nsamples = 2\nvalue = 10.0"] ;
583 -> 584 ;
585 [label="mse = 0.0\nsamples = 1\nvalue = 40.0"] ;
583 -> 585 ;
586 [label="X[0] <= 17670.5\nmse = 28.698\nsamples = 52\nvalue = 4.615"] ;
570 -> 586 ;
587 [label="X[0] <= 13392.5\nmse = 23.32\nsamples = 27\nvalue = 3.704"] ;
586 -> 587 ;
588 [label="X[5] <= 17.5\nmse = 24.931\nsamples = 19\nvalue = 5.263"] ;
587 -> 588 ;
589 [label="X[0] <= 8228.5\nmse = 21.302\nsamples = 13\nvalue = 6.923"] ;
588 -> 589 ;
590 [label="X[8] <= 2.5\nmse = 25.0\nsamples = 8\nvalue = 5.0"] ;
589 -> 590 ;
591 [label="mse = 0.0\nsamples = 3\nvalue = 0.0"] ;
590 -> 591 ;
592 [label="X[0] <= 6080.5\nmse = 16.0\nsamples = 5\nvalue = 8.0"] ;
590 -> 592 ;
593 [label="mse = 0.0\nsamples = 1\nvalue = 0.0"] ;
592 -> 593 ;
594 [label="mse = 0.0\nsamples = 4\nvalue = 10.0"] ;
592 -> 594 ;
595 [label="mse = 0.0\nsamples = 5\nvalue = 10.0"] ;
589 -> 595 ;
596 [label="X[0] <= 11239.0\nmse = 13.889\nsamples = 6\nvalue = 1.667"] ;
588 -> 596 ;
597 [label="mse = 0.0\nsamples = 5\nvalue = 0.0"] ;
596 -> 597 ;
598 [label="mse = 0.0\nsamples = 1\nvalue = 10.0"] ;
596 -> 598 ;
599 [label="mse = 0.0\nsamples = 8\nvalue = 0.0"] ;
587 -> 599 ;
600 [label="X[0] <= 18333.5\nmse = 32.64\nsamples = 25\nvalue = 5.6"] ;
586 -> 600 ;
601 [label="mse = 0.0\nsamples = 1\nvalue = 20.0"] ;
600 -> 601 ;
602 [label="X[8] <= 3.5\nmse = 25.0\nsamples = 24\nvalue = 5.0"] ;
600 -> 602 ;
603 [label="X[3] <= 1.5\nmse = 22.837\nsamples = 17\nvalue = 6.471"] ;
602 -> 603 ;
604 [label="X[4] <= 1.5\nmse = 14.876\nsamples = 11\nvalue = 8.182"] ;
603 -> 604 ;
605 [label="mse = 0.0\nsamples = 5\nvalue = 10.0"] ;
604 -> 605 ;
606 [label="X[0] <= 21037.5\nmse = 22.222\nsamples = 6\nvalue = 6.667"] ;
604 -> 606 ;
607 [label="mse = 0.0\nsamples = 3\nvalue = 10.0"] ;
606 -> 607 ;
608 [label="X[4] <= 9.5\nmse = 22.222\nsamples = 3\nvalue = 3.333"] ;
606 -> 608 ;
609 [label="mse = 0.0\nsamples = 2\nvalue = 0.0"] ;
608 -> 609 ;
610 [label="mse = 0.0\nsamples = 1\nvalue = 10.0"] ;
608 -> 610 ;
611 [label="X[5] <= 9.5\nmse = 22.222\nsamples = 6\nvalue = 3.333"] ;
603 -> 611 ;
612 [label="mse = 0.0\nsamples = 4\nvalue = 0.0"] ;
611 -> 612 ;
613 [label="mse = 0.0\nsamples = 2\nvalue = 10.0"] ;
611 -> 613 ;
614 [label="X[0] <= 18769.0\nmse = 12.245\nsamples = 7\nvalue = 1.429"] ;
602 -> 614 ;
615 [label="mse = 0.0\nsamples = 1\nvalue = 10.0"] ;
614 -> 615 ;
616 [label="mse = 0.0\nsamples = 6\nvalue = 0.0"] ;
614 -> 616 ;
617 [label="X[8] <= 3.5\nmse = 598.222\nsamples = 30\nvalue = 25.333"] ;
451 -> 617 ;
618 [label="X[5] <= 18.5\nmse = 419.976\nsamples = 29\nvalue = 22.759"] ;
617 -> 618 ;
619 [label="X[4] <= 3.5\nmse = 214.286\nsamples = 28\nvalue = 20.0"] ;
618 -> 619 ;
620 [label="X[6] <= 9.0\nmse = 171.745\nsamples = 19\nvalue = 15.789"] ;
619 -> 620 ;
621 [label="mse = 0.0\nsamples = 1\nvalue = 50.0"] ;
620 -> 621 ;
622 [label="X[0] <= 19473.5\nmse = 112.654\nsamples = 18\nvalue = 13.889"] ;
620 -> 622 ;
623 [label="X[6] <= 16.5\nmse = 91.837\nsamples = 14\nvalue = 17.143"] ;
622 -> 623 ;
624 [label="X[0] <= 12056.0\nmse = 74.306\nsamples = 12\nvalue = 19.167"] ;
623 -> 624 ;
625 [label="X[3] <= 4.5\nmse = 22.222\nsamples = 9\nvalue = 16.667"] ;
624 -> 625 ;
626 [label="X[2] <= 5.5\nmse = 12.245\nsamples = 7\nvalue = 18.571"] ;
625 -> 626 ;
627 [label="X[5] <= 1.0\nmse = 25.0\nsamples = 2\nvalue = 15.0"] ;
626 -> 627 ;
628 [label="mse = 0.0\nsamples = 1\nvalue = 20.0"] ;
627 -> 628 ;
629 [label="mse = 0.0\nsamples = 1\nvalue = 10.0"] ;
627 -> 629 ;
630 [label="mse = 0.0\nsamples = 5\nvalue = 20.0"] ;
626 -> 630 ;
631 [label="mse = 0.0\nsamples = 2\nvalue = 10.0"] ;
625 -> 631 ;
632 [label="X[3] <= 1.5\nmse = 155.556\nsamples = 3\nvalue = 26.667"] ;
624 -> 632 ;
633 [label="mse = 0.0\nsamples = 1\nvalue = 10.0"] ;
632 -> 633 ;
634 [label="X[0] <= 15647.5\nmse = 25.0\nsamples = 2\nvalue = 35.0"] ;
632 -> 634 ;
635 [label="mse = 0.0\nsamples = 1\nvalue = 40.0"] ;
634 -> 635 ;
636 [label="mse = 0.0\nsamples = 1\nvalue = 30.0"] ;
634 -> 636 ;
637 [label="X[0] <= 13267.5\nmse = 25.0\nsamples = 2\nvalue = 5.0"] ;
623 -> 637 ;
638 [label="mse = 0.0\nsamples = 1\nvalue = 10.0"] ;
637 -> 638 ;
639 [label="mse = 0.0\nsamples = 1\nvalue = 0.0"] ;
637 -> 639 ;
640 [label="X[2] <= 3.5\nmse = 18.75\nsamples = 4\nvalue = 2.5"] ;
622 -> 640 ;
641 [label="mse = 0.0\nsamples = 1\nvalue = 10.0"] ;
640 -> 641 ;
642 [label="mse = 0.0\nsamples = 3\nvalue = 0.0"] ;
640 -> 642 ;
643 [label="X[2] <= 4.0\nmse = 187.654\nsamples = 9\nvalue = 28.889"] ;
619 -> 643 ;
644 [label="mse = 0.0\nsamples = 2\nvalue = 10.0"] ;
643 -> 644 ;
645 [label="X[5] <= 9.5\nmse = 110.204\nsamples = 7\nvalue = 34.286"] ;
643 -> 645 ;
646 [label="X[0] <= 6268.0\nmse = 22.222\nsamples = 3\nvalue = 26.667"] ;
645 -> 646 ;
647 [label="mse = 0.0\nsamples = 1\nvalue = 20.0"] ;
646 -> 647 ;
648 [label="mse = 0.0\nsamples = 2\nvalue = 30.0"] ;
646 -> 648 ;
649 [label="X[6] <= 15.0\nmse = 100.0\nsamples = 4\nvalue = 40.0"] ;
645 -> 649 ;
650 [label="mse = 0.0\nsamples = 2\nvalue = 30.0"] ;
649 -> 650 ;
651 [label="mse = 0.0\nsamples = 2\nvalue = 50.0"] ;
649 -> 651 ;
652 [label="mse = 0.0\nsamples = 1\nvalue = 100.0"] ;
618 -> 652 ;
653 [label="mse = 0.0\nsamples = 1\nvalue = 100.0"] ;
617 -> 653 ;
654 [label="X[8] <= 4.5\nmse = 3793.75\nsamples = 8\nvalue = 42.5"] ;
450 -> 654 ;
655 [label="X[8] <= 2.5\nmse = 285.714\nsamples = 7\nvalue = 20.0"] ;
654 -> 655 ;
656 [label="X[1] <= 1.5\nmse = 40.0\nsamples = 5\nvalue = 10.0"] ;
655 -> 656 ;
657 [label="X[2] <= 4.0\nmse = 18.75\nsamples = 4\nvalue = 7.5"] ;
656 -> 657 ;
658 [label="mse = 0.0\nsamples = 1\nvalue = 0.0"] ;
657 -> 658 ;
659 [label="mse = 0.0\nsamples = 3\nvalue = 10.0"] ;
657 -> 659 ;
660 [label="mse = 0.0\nsamples = 1\nvalue = 20.0"] ;
656 -> 660 ;
661 [label="X[0] <= 19008.5\nmse = 25.0\nsamples = 2\nvalue = 45.0"] ;
655 -> 661 ;
662 [label="mse = 0.0\nsamples = 1\nvalue = 40.0"] ;
661 -> 662 ;
663 [label="mse = 0.0\nsamples = 1\nvalue = 50.0"] ;
661 -> 663 ;
664 [label="mse = 0.0\nsamples = 1\nvalue = 200.0"] ;
654 -> 664 ;
665 [label="X[4] <= 7.5\nmse = 1221.598\nsamples = 2284\nvalue = 18.831"] ;
5 -> 665 ;
666 [label="X[8] <= 1.5\nmse = 1046.923\nsamples = 1798\nvalue = 17.241"] ;
665 -> 666 ;
667 [label="X[2] <= 4.5\nmse = 830.612\nsamples = 933\nvalue = 14.314"] ;
666 -> 667 ;
668 [label="X[0] <= 20901.5\nmse = 780.695\nsamples = 499\nvalue = 11.864"] ;
667 -> 668 ;
669 [label="X[0] <= 20870.5\nmse = 904.012\nsamples = 414\nvalue = 12.754"] ;
668 -> 669 ;
670 [label="X[3] <= 2.5\nmse = 542.734\nsamples = 412\nvalue = 11.772"] ;
669 -> 670 ;
671 [label="X[0] <= 77.0\nmse = 86.665\nsamples = 225\nvalue = 8.844"] ;
670 -> 671 ;
672 [label="mse = 0.0\nsamples = 1\nvalue = 40.0"] ;
671 -> 672 ;
673 [label="X[6] <= 8.5\nmse = 82.699\nsamples = 224\nvalue = 8.705"] ;
671 -> 673 ;
674 [label="X[6] <= 2.5\nmse = 67.05\nsamples = 177\nvalue = 7.966"] ;
673 -> 674 ;
675 [label="X[0] <= 17829.0\nmse = 129.59\nsamples = 32\nvalue = 12.188"] ;
674 -> 675 ;
676 [label="X[6] <= 0.5\nmse = 109.0\nsamples = 30\nvalue = 11.0"] ;
675 -> 676 ;
677 [label="X[0] <= 5523.0\nmse = 24.793\nsamples = 11\nvalue = 5.455"] ;
676 -> 677 ;
678 [label="mse = 0.0\nsamples = 3\nvalue = 10.0"] ;
677 -> 678 ;
679 [label="X[4] <= 1.5\nmse = 23.438\nsamples = 8\nvalue = 3.75"] ;
677 -> 679 ;
680 [label="X[0] <= 8139.0\nmse = 24.0\nsamples = 5\nvalue = 6.0"] ;
679 -> 680 ;
681 [label="mse = 0.0\nsamples = 1\nvalue = 0.0"] ;
680 -> 681 ;
682 [label="X[0] <= 14923.0\nmse = 18.75\nsamples = 4\nvalue = 7.5"] ;
680 -> 682 ;
683 [label="mse = 0.0\nsamples = 3\nvalue = 10.0"] ;
682 -> 683 ;
684 [label="mse = 0.0\nsamples = 1\nvalue = 0.0"] ;
682 -> 684 ;
685 [label="mse = 0.0\nsamples = 3\nvalue = 0.0"] ;
679 -> 685 ;
686 [label="X[0] <= 8362.0\nmse = 129.64\nsamples = 19\nvalue = 14.211"] ;
676 -> 686 ;
687 [label="X[0] <= 3831.5\nmse = 36.364\nsamples = 11\nvalue = 10.0"] ;
686 -> 687 ;
688 [label="X[0] <= 654.5\nmse = 20.408\nsamples = 7\nvalue = 12.857"] ;
687 -> 688 ;
689 [label="mse = 0.0\nsamples = 3\nvalue = 10.0"] ;
688 -> 689 ;
690 [label="X[0] <= 1907.0\nmse = 25.0\nsamples = 4\nvalue = 15.0"] ;
688 -> 690 ;
691 [label="mse = 0.0\nsamples = 2\nvalue = 20.0"] ;
690 -> 691 ;
692 [label="mse = 0.0\nsamples = 2\nvalue = 10.0"] ;
690 -> 692 ;
693 [label="X[1] <= 0.5\nmse = 25.0\nsamples = 4\nvalue = 5.0"] ;
687 -> 693 ;
694 [label="mse = 0.0\nsamples = 1\nvalue = 10.0"] ;
693 -> 694 ;
695 [label="X[4] <= 1.5\nmse = 22.222\nsamples = 3\nvalue = 3.333"] ;
693 -> 695 ;
696 [label="X[2] <= 2.5\nmse = 25.0\nsamples = 2\nvalue = 5.0"] ;
695 -> 696 ;
697 [label="mse = 0.0\nsamples = 1\nvalue = 0.0"] ;
696 -> 697 ;
698 [label="mse = 0.0\nsamples = 1\nvalue = 10.0"] ;
696 -> 698 ;
699 [label="mse = 0.0\nsamples = 1\nvalue = 0.0"] ;
695 -> 699 ;
700 [label="X[0] <= 10594.0\nmse = 200.0\nsamples = 8\nvalue = 20.0"] ;
686 -> 700 ;
701 [label="X[6] <= 1.5\nmse = 155.556\nsamples = 3\nvalue = 33.333"] ;
700 -> 701 ;
702 [label="mse = 0.0\nsamples = 1\nvalue = 50.0"] ;
701 -> 702 ;
703 [label="X[5] <= 5.5\nmse = 25.0\nsamples = 2\nvalue = 25.0"] ;
701 -> 703 ;
704 [label="mse = 0.0\nsamples = 1\nvalue = 20.0"] ;
703 -> 704 ;
705 [label="mse = 0.0\nsamples = 1\nvalue = 30.0"] ;
703 -> 705 ;
706 [label="X[3] <= 1.0\nmse = 56.0\nsamples = 5\nvalue = 12.0"] ;
700 -> 706 ;
707 [label="X[5] <= 14.5\nmse = 25.0\nsamples = 4\nvalue = 15.0"] ;
706 -> 707 ;
708 [label="mse = 0.0\nsamples = 2\nvalue = 20.0"] ;
707 -> 708 ;
709 [label="mse = 0.0\nsamples = 2\nvalue = 10.0"] ;
707 -> 709 ;
710 [label="mse = 0.0\nsamples = 1\nvalue = 0.0"] ;
706 -> 710 ;
711 [label="X[5] <= 5.5\nmse = 100.0\nsamples = 2\nvalue = 30.0"] ;
675 -> 711 ;
712 [label="mse = 0.0\nsamples = 1\nvalue = 40.0"] ;
711 -> 712 ;
713 [label="mse = 0.0\nsamples = 1\nvalue = 20.0"] ;
711 -> 713 ;
714 [label="X[2] <= 0.5\nmse = 48.447\nsamples = 145\nvalue = 7.034"] ;
674 -> 714 ;
715 [label="X[5] <= 9.5\nmse = 22.222\nsamples = 9\nvalue = 13.333"] ;
714 -> 715 ;
716 [label="X[0] <= 9201.5\nmse = 24.0\nsamples = 5\nvalue = 16.0"] ;
715 -> 716 ;
717 [label="mse = 0.0\nsamples = 2\nvalue = 20.0"] ;
716 -> 717 ;
718 [label="X[4] <= 4.0\nmse = 22.222\nsamples = 3\nvalue = 13.333"] ;
716 -> 718 ;
719 [label="mse = 0.0\nsamples = 2\nvalue = 10.0"] ;
718 -> 719 ;
720 [label="mse = 0.0\nsamples = 1\nvalue = 20.0"] ;
718 -> 720 ;
721 [label="mse = 0.0\nsamples = 4\nvalue = 10.0"] ;
715 -> 721 ;
722 [label="X[5] <= 17.0\nmse = 47.383\nsamples = 136\nvalue = 6.618"] ;
714 -> 722 ;
723 [label="X[1] <= 1.5\nmse = 37.673\nsamples = 78\nvalue = 5.385"] ;
722 -> 723 ;
724 [label="X[5] <= 2.5\nmse = 35.352\nsamples = 77\nvalue = 5.195"] ;
723 -> 724 ;
725 [label="mse = 0.0\nsamples = 5\nvalue = 0.0"] ;
724 -> 725 ;
726 [label="X[6] <= 6.5\nmse = 35.802\nsamples = 72\nvalue = 5.556"] ;
724 -> 726 ;
727 [label="X[6] <= 5.0\nmse = 38.524\nsamples = 51\nvalue = 6.471"] ;
726 -> 727 ;
728 [label="X[1] <= 0.5\nmse = 35.985\nsamples = 49\nvalue = 6.122"] ;
727 -> 728 ;
729 [label="mse = 0.0\nsamples = 4\nvalue = 0.0"] ;
728 -> 729 ;
730 [label="X[0] <= 366.5\nmse = 35.556\nsamples = 45\nvalue = 6.667"] ;
728 -> 730 ;
731 [label="mse = 0.0\nsamples = 2\nvalue = 0.0"] ;
730 -> 731 ;
732 [label="X[0] <= 16135.0\nmse = 35.046\nsamples = 43\nvalue = 6.977"] ;
730 -> 732 ;
733 [label="X[5] <= 4.5\nmse = 28.834\nsamples = 33\nvalue = 7.879"] ;
732 -> 733 ;
734 [label="X[0] <= 819.5\nmse = 24.793\nsamples = 11\nvalue = 5.455"] ;
733 -> 734 ;
735 [label="mse = 0.0\nsamples = 2\nvalue = 10.0"] ;
734 -> 735 ;
736 [label="X[0] <= 1180.0\nmse = 24.691\nsamples = 9\nvalue = 4.444"] ;
734 -> 736 ;
737 [label="mse = 0.0\nsamples = 2\nvalue = 0.0"] ;
736 -> 737 ;
738 [label="X[4] <= 1.5\nmse = 24.49\nsamples = 7\nvalue = 5.714"] ;
736 -> 738 ;
739 [label="X[0] <= 4502.0\nmse = 24.0\nsamples = 5\nvalue = 4.0"] ;
738 -> 739 ;
740 [label="mse = 0.0\nsamples = 1\nvalue = 10.0"] ;
739 -> 740 ;
741 [label="X[0] <= 10966.5\nmse = 18.75\nsamples = 4\nvalue = 2.5"] ;
739 -> 741 ;
742 [label="mse = 0.0\nsamples = 2\nvalue = 0.0"] ;
741 -> 742 ;
743 [label="X[0] <= 13467.0\nmse = 25.0\nsamples = 2\nvalue = 5.0"] ;
741 -> 743 ;
744 [label="mse = 0.0\nsamples = 1\nvalue = 10.0"] ;
743 -> 744 ;
745 [label="mse = 0.0\nsamples = 1\nvalue = 0.0"] ;
743 -> 745 ;
746 [label="mse = 0.0\nsamples = 2\nvalue = 10.0"] ;
738 -> 746 ;
747 [label="X[5] <= 9.5\nmse = 26.446\nsamples = 22\nvalue = 9.091"] ;
733 -> 747 ;
748 [label="X[0] <= 8923.0\nmse = 19.556\nsamples = 15\nvalue = 10.667"] ;
747 -> 748 ;
749 [label="X[0] <= 8564.0\nmse = 18.75\nsamples = 8\nvalue = 12.5"] ;
748 -> 749 ;
750 [label="X[0] <= 2929.0\nmse = 12.245\nsamples = 7\nvalue = 11.429"] ;
749 -> 750 ;
751 [label="mse = 0.0\nsamples = 3\nvalue = 10.0"] ;
750 -> 751 ;
752 [label="X[0] <= 5514.5\nmse = 18.75\nsamples = 4\nvalue = 12.5"] ;
750 -> 752 ;
753 [label="mse = 0.0\nsamples = 1\nvalue = 20.0"] ;
752 -> 753 ;
754 [label="mse = 0.0\nsamples = 3\nvalue = 10.0"] ;
752 -> 754 ;
755 [label="mse = 0.0\nsamples = 1\nvalue = 20.0"] ;
749 -> 755 ;
756 [label="X[0] <= 10544.5\nmse = 12.245\nsamples = 7\nvalue = 8.571"] ;
748 -> 756 ;
757 [label="X[0] <= 9202.0\nmse = 25.0\nsamples = 2\nvalue = 5.0"] ;
756 -> 757 ;
758 [label="mse = 0.0\nsamples = 1\nvalue = 10.0"] ;
757 -> 758 ;
759 [label="mse = 0.0\nsamples = 1\nvalue = 0.0"] ;
757 -> 759 ;
760 [label="mse = 0.0\nsamples = 5\nvalue = 10.0"] ;
756 -> 760 ;
761 [label="X[0] <= 1358.5\nmse = 24.49\nsamples = 7\nvalue = 5.714"] ;
747 -> 761 ;
762 [label="mse = 0.0\nsamples = 2\nvalue = 10.0"] ;
761 -> 762 ;
763 [label="X[5] <= 13.5\nmse = 24.0\nsamples = 5\nvalue = 4.0"] ;
761 -> 763 ;
764 [label="X[0] <= 4692.0\nmse = 22.222\nsamples = 3\nvalue = 6.667"] ;
763 -> 764 ;
765 [label="mse = 0.0\nsamples = 1\nvalue = 0.0"] ;
764 -> 765 ;
766 [label="mse = 0.0\nsamples = 2\nvalue = 10.0"] ;
764 -> 766 ;
767 [label="mse = 0.0\nsamples = 2\nvalue = 0.0"] ;
763 -> 767 ;
768 [label="X[0] <= 18983.0\nmse = 44.0\nsamples = 10\nvalue = 4.0"] ;
732 -> 768 ;
769 [label="mse = 0.0\nsamples = 4\nvalue = 0.0"] ;
768 -> 769 ;
770 [label="X[0] <= 19551.5\nmse = 55.556\nsamples = 6\nvalue = 6.667"] ;
768 -> 770 ;
771 [label="X[0] <= 19312.0\nmse = 66.667\nsamples = 3\nvalue = 10.0"] ;
770 -> 771 ;
772 [label="X[5] <= 5.5\nmse = 25.0\nsamples = 2\nvalue = 5.0"] ;
771 -> 772 ;
773 [label="mse = 0.0\nsamples = 1\nvalue = 0.0"] ;
772 -> 773 ;
774 [label="mse = 0.0\nsamples = 1\nvalue = 10.0"] ;
772 -> 774 ;
775 [label="mse = 0.0\nsamples = 1\nvalue = 20.0"] ;
771 -> 775 ;
776 [label="X[0] <= 19885.0\nmse = 22.222\nsamples = 3\nvalue = 3.333"] ;
770 -> 776 ;
777 [label="mse = 0.0\nsamples = 2\nvalue = 0.0"] ;
776 -> 777 ;
778 [label="mse = 0.0\nsamples = 1\nvalue = 10.0"] ;
776 -> 778 ;
779 [label="X[1] <= 0.5\nmse = 25.0\nsamples = 2\nvalue = 15.0"] ;
727 -> 779 ;
780 [label="mse = 0.0\nsamples = 1\nvalue = 10.0"] ;
779 -> 780 ;
781 [label="mse = 0.0\nsamples = 1\nvalue = 20.0"] ;
779 -> 781 ;
782 [label="X[6] <= 7.5\nmse = 22.222\nsamples = 21\nvalue = 3.333"] ;
726 -> 782 ;
783 [label="X[1] <= 0.5\nmse = 19.391\nsamples = 19\nvalue = 2.632"] ;
782 -> 783 ;
784 [label="X[4] <= 0.5\nmse = 22.222\nsamples = 3\nvalue = 6.667"] ;
783 -> 784 ;
785 [label="mse = 0.0\nsamples = 1\nvalue = 10.0"] ;
784 -> 785 ;
786 [label="X[0] <= 4728.0\nmse = 25.0\nsamples = 2\nvalue = 5.0"] ;
784 -> 786 ;
787 [label="mse = 0.0\nsamples = 1\nvalue = 10.0"] ;
786 -> 787 ;
788 [label="mse = 0.0\nsamples = 1\nvalue = 0.0"] ;
786 -> 788 ;
789 [label="X[5] <= 6.0\nmse = 15.234\nsamples = 16\nvalue = 1.875"] ;
783 -> 789 ;
790 [label="mse = 0.0\nsamples = 4\nvalue = 0.0"] ;
789 -> 790 ;
791 [label="X[0] <= 15656.5\nmse = 18.75\nsamples = 12\nvalue = 2.5"] ;
789 -> 791 ;
792 [label="X[0] <= 9093.5\nmse = 22.222\nsamples = 9\nvalue = 3.333"] ;
791 -> 792 ;
793 [label="X[0] <= 1057.0\nmse = 13.889\nsamples = 6\nvalue = 1.667"] ;
792 -> 793 ;
794 [label="X[3] <= 1.0\nmse = 25.0\nsamples = 2\nvalue = 5.0"] ;
793 -> 794 ;
795 [label="mse = 0.0\nsamples = 1\nvalue = 10.0"] ;
794 -> 795 ;
796 [label="mse = 0.0\nsamples = 1\nvalue = 0.0"] ;
794 -> 796 ;
797 [label="mse = 0.0\nsamples = 4\nvalue = 0.0"] ;
793 -> 797 ;
798 [label="X[2] <= 2.5\nmse = 22.222\nsamples = 3\nvalue = 6.667"] ;
792 -> 798 ;
799 [label="mse = 0.0\nsamples = 1\nvalue = 0.0"] ;
798 -> 799 ;
800 [label="mse = 0.0\nsamples = 2\nvalue = 10.0"] ;
798 -> 800 ;
801 [label="mse = 0.0\nsamples = 3\nvalue = 0.0"] ;
791 -> 801 ;
802 [label="mse = 0.0\nsamples = 2\nvalue = 10.0"] ;
782 -> 802 ;
803 [label="mse = 0.0\nsamples = 1\nvalue = 20.0"] ;
723 -> 803 ;
804 [label="X[6] <= 3.5\nmse = 55.648\nsamples = 58\nvalue = 8.276"] ;
722 -> 804 ;
805 [label="X[0] <= 19123.0\nmse = 53.365\nsamples = 52\nvalue = 7.5"] ;
804 -> 805 ;
806 [label="X[2] <= 2.5\nmse = 46.484\nsamples = 48\nvalue = 6.875"] ;
805 -> 806 ;
807 [label="X[0] <= 12343.0\nmse = 18.75\nsamples = 4\nvalue = 2.5"] ;
806 -> 807 ;
808 [label="X[0] <= 5840.0\nmse = 25.0\nsamples = 2\nvalue = 5.0"] ;
807 -> 808 ;
809 [label="mse = 0.0\nsamples = 1\nvalue = 0.0"] ;
808 -> 809 ;
810 [label="mse = 0.0\nsamples = 1\nvalue = 10.0"] ;
808 -> 810 ;
811 [label="mse = 0.0\nsamples = 2\nvalue = 0.0"] ;
807 -> 811 ;
812 [label="X[0] <= 18651.5\nmse = 47.107\nsamples = 44\nvalue = 7.273"] ;
806 -> 812 ;
813 [label="X[0] <= 18329.0\nmse = 46.944\nsamples = 43\nvalue = 7.442"] ;
812 -> 813 ;
814 [label="X[0] <= 16825.5\nmse = 44.218\nsamples = 42\nvalue = 7.143"] ;
813 -> 814 ;
815 [label="X[0] <= 8864.5\nmse = 44.707\nsamples = 39\nvalue = 7.436"] ;
814 -> 815 ;
816 [label="X[0] <= 6773.5\nmse = 32.231\nsamples = 22\nvalue = 6.364"] ;
815 -> 816 ;
817 [label="X[1] <= 0.5\nmse = 29.333\nsamples = 15\nvalue = 8.0"] ;
816 -> 817 ;
818 [label="X[0] <= 366.5\nmse = 25.0\nsamples = 2\nvalue = 15.0"] ;
817 -> 818 ;
819 [label="mse = 0.0\nsamples = 1\nvalue = 20.0"] ;
818 -> 819 ;
820 [label="mse = 0.0\nsamples = 1\nvalue = 10.0"] ;
818 -> 820 ;
821 [label="X[0] <= 341.0\nmse = 21.302\nsamples = 13\nvalue = 6.923"] ;
817 -> 821 ;
822 [label="X[0] <= 268.5\nmse = 22.222\nsamples = 3\nvalue = 3.333"] ;
821 -> 822 ;
823 [label="mse = 0.0\nsamples = 1\nvalue = 10.0"] ;
822 -> 823 ;
824 [label="mse = 0.0\nsamples = 2\nvalue = 0.0"] ;
822 -> 824 ;
825 [label="X[0] <= 502.5\nmse = 16.0\nsamples = 10\nvalue = 8.0"] ;
821 -> 825 ;
826 [label="mse = 0.0\nsamples = 2\nvalue = 10.0"] ;
825 -> 826 ;
827 [label="X[0] <= 617.0\nmse = 18.75\nsamples = 8\nvalue = 7.5"] ;
825 -> 827 ;
828 [label="mse = 0.0\nsamples = 1\nvalue = 0.0"] ;
827 -> 828 ;
829 [label="X[0] <= 2263.5\nmse = 12.245\nsamples = 7\nvalue = 8.571"] ;
827 -> 829 ;
830 [label="mse = 0.0\nsamples = 4\nvalue = 10.0"] ;
829 -> 830 ;
831 [label="X[0] <= 4339.5\nmse = 22.222\nsamples = 3\nvalue = 6.667"] ;
829 -> 831 ;
832 [label="mse = 0.0\nsamples = 1\nvalue = 0.0"] ;
831 -> 832 ;
833 [label="mse = 0.0\nsamples = 2\nvalue = 10.0"] ;
831 -> 833 ;
834 [label="X[4] <= 1.5\nmse = 20.408\nsamples = 7\nvalue = 2.857"] ;
816 -> 834 ;
835 [label="mse = 0.0\nsamples = 4\nvalue = 0.0"] ;
834 -> 835 ;
836 [label="X[4] <= 4.5\nmse = 22.222\nsamples = 3\nvalue = 6.667"] ;
834 -> 836 ;
837 [label="mse = 0.0\nsamples = 2\nvalue = 10.0"] ;
836 -> 837 ;
838 [label="mse = 0.0\nsamples = 1\nvalue = 0.0"] ;
836 -> 838 ;
839 [label="X[0] <= 10103.0\nmse = 57.439\nsamples = 17\nvalue = 8.824"] ;
815 -> 839 ;
840 [label="X[0] <= 9789.0\nmse = 75.0\nsamples = 4\nvalue = 15.0"] ;
839 -> 840 ;
841 [label="mse = 0.0\nsamples = 3\nvalue = 10.0"] ;
840 -> 841 ;
842 [label="mse = 0.0\nsamples = 1\nvalue = 30.0"] ;
840 -> 842 ;
843 [label="X[0] <= 14649.5\nmse = 36.686\nsamples = 13\nvalue = 6.923"] ;
839 -> 843 ;
844 [label="X[4] <= 1.5\nmse = 22.222\nsamples = 6\nvalue = 3.333"] ;
843 -> 844 ;
845 [label="X[0] <= 13269.0\nmse = 16.0\nsamples = 5\nvalue = 2.0"] ;
844 -> 845 ;
846 [label="mse = 0.0\nsamples = 3\nvalue = 0.0"] ;
845 -> 846 ;
847 [label="X[0] <= 13945.5\nmse = 25.0\nsamples = 2\nvalue = 5.0"] ;
845 -> 847 ;
848 [label="mse = 0.0\nsamples = 1\nvalue = 10.0"] ;
847 -> 848 ;
849 [label="mse = 0.0\nsamples = 1\nvalue = 0.0"] ;
847 -> 849 ;
850 [label="mse = 0.0\nsamples = 1\nvalue = 10.0"] ;
844 -> 850 ;
851 [label="X[0] <= 15121.5\nmse = 28.571\nsamples = 7\nvalue = 10.0"] ;
843 -> 851 ;
852 [label="X[0] <= 14954.0\nmse = 25.0\nsamples = 2\nvalue = 15.0"] ;
851 -> 852 ;
853 [label="mse = 0.0\nsamples = 1\nvalue = 10.0"] ;
852 -> 853 ;
854 [label="mse = 0.0\nsamples = 1\nvalue = 20.0"] ;
852 -> 854 ;
855 [label="X[0] <= 15517.0\nmse = 16.0\nsamples = 5\nvalue = 8.0"] ;
851 -> 855 ;
856 [label="X[0] <= 15216.5\nmse = 25.0\nsamples = 2\nvalue = 5.0"] ;
855 -> 856 ;
857 [label="mse = 0.0\nsamples = 1\nvalue = 10.0"] ;
856 -> 857 ;
858 [label="mse = 0.0\nsamples = 1\nvalue = 0.0"] ;
856 -> 858 ;
859 [label="mse = 0.0\nsamples = 3\nvalue = 10.0"] ;
855 -> 859 ;
860 [label="X[0] <= 17717.0\nmse = 22.222\nsamples = 3\nvalue = 3.333"] ;
814 -> 860 ;
861 [label="mse = 0.0\nsamples = 2\nvalue = 0.0"] ;
860 -> 861 ;
862 [label="mse = 0.0\nsamples = 1\nvalue = 10.0"] ;
860 -> 862 ;
863 [label="mse = 0.0\nsamples = 1\nvalue = 20.0"] ;
813 -> 863 ;
864 [label="mse = 0.0\nsamples = 1\nvalue = 0.0"] ;
812 -> 864 ;
865 [label="X[3] <= 1.0\nmse = 75.0\nsamples = 4\nvalue = 15.0"] ;
805 -> 865 ;
866 [label="mse = 0.0\nsamples = 3\nvalue = 10.0"] ;
865 -> 866 ;
867 [label="mse = 0.0\nsamples = 1\nvalue = 30.0"] ;
865 -> 867 ;
868 [label="X[0] <= 2326.5\nmse = 25.0\nsamples = 6\nvalue = 15.0"] ;
804 -> 868 ;
869 [label="mse = 0.0\nsamples = 2\nvalue = 10.0"] ;
868 -> 869 ;
870 [label="X[6] <= 7.5\nmse = 18.75\nsamples = 4\nvalue = 17.5"] ;
868 -> 870 ;
871 [label="mse = 0.0\nsamples = 3\nvalue = 20.0"] ;
870 -> 871 ;
872 [label="mse = 0.0\nsamples = 1\nvalue = 10.0"] ;
870 -> 872 ;
873 [label="X[0] <= 396.0\nmse = 131.824\nsamples = 47\nvalue = 11.489"] ;
673 -> 873 ;
874 [label="X[6] <= 16.5\nmse = 625.0\nsamples = 2\nvalue = 35.0"] ;
873 -> 874 ;
875 [label="mse = 0.0\nsamples = 1\nvalue = 10.0"] ;
874 -> 875 ;
876 [label="mse = 0.0\nsamples = 1\nvalue = 60.0"] ;
874 -> 876 ;
877 [label="X[0] <= 16830.0\nmse = 84.247\nsamples = 45\nvalue = 10.444"] ;
873 -> 877 ;
878 [label="X[0] <= 639.0\nmse = 46.531\nsamples = 35\nvalue = 8.571"] ;
877 -> 878 ;
879 [label="mse = 0.0\nsamples = 2\nvalue = 20.0"] ;
878 -> 879 ;
880 [label="X[5] <= 4.5\nmse = 40.955\nsamples = 33\nvalue = 7.879"] ;
878 -> 880 ;
881 [label="X[0] <= 988.5\nmse = 26.446\nsamples = 11\nvalue = 10.909"] ;
880 -> 881 ;
882 [label="mse = 0.0\nsamples = 1\nvalue = 20.0"] ;
881 -> 882 ;
883 [label="X[0] <= 13568.5\nmse = 20.0\nsamples = 10\nvalue = 10.0"] ;
881 -> 883 ;
884 [label="X[6] <= 13.0\nmse = 12.245\nsamples = 7\nvalue = 11.429"] ;
883 -> 884 ;
885 [label="X[2] <= 2.0\nmse = 25.0\nsamples = 2\nvalue = 15.0"] ;
884 -> 885 ;
886 [label="mse = 0.0\nsamples = 1\nvalue = 10.0"] ;
885 -> 886 ;
887 [label="mse = 0.0\nsamples = 1\nvalue = 20.0"] ;
885 -> 887 ;
888 [label="mse = 0.0\nsamples = 5\nvalue = 10.0"] ;
884 -> 888 ;
889 [label="X[0] <= 14508.0\nmse = 22.222\nsamples = 3\nvalue = 6.667"] ;
883 -> 889 ;
890 [label="mse = 0.0\nsamples = 1\nvalue = 0.0"] ;
889 -> 890 ;
891 [label="mse = 0.0\nsamples = 2\nvalue = 10.0"] ;
889 -> 891 ;
892 [label="X[6] <= 9.5\nmse = 41.322\nsamples = 22\nvalue = 6.364"] ;
880 -> 892 ;
893 [label="X[0] <= 6318.0\nmse = 25.0\nsamples = 2\nvalue = 15.0"] ;
892 -> 893 ;
894 [label="mse = 0.0\nsamples = 1\nvalue = 10.0"] ;
893 -> 894 ;
895 [label="mse = 0.0\nsamples = 1\nvalue = 20.0"] ;
893 -> 895 ;
896 [label="X[4] <= 1.5\nmse = 34.75\nsamples = 20\nvalue = 5.5"] ;
892 -> 896 ;
897 [label="X[5] <= 16.0\nmse = 24.49\nsamples = 14\nvalue = 4.286"] ;
896 -> 897 ;
898 [label="mse = 0.0\nsamples = 4\nvalue = 0.0"] ;
897 -> 898 ;
899 [label="X[0] <= 5713.0\nmse = 24.0\nsamples = 10\nvalue = 6.0"] ;
897 -> 899 ;
900 [label="mse = 0.0\nsamples = 3\nvalue = 10.0"] ;
899 -> 900 ;
901 [label="X[0] <= 7083.5\nmse = 24.49\nsamples = 7\nvalue = 4.286"] ;
899 -> 901 ;
902 [label="mse = 0.0\nsamples = 2\nvalue = 0.0"] ;
901 -> 902 ;
903 [label="X[0] <= 13216.5\nmse = 24.0\nsamples = 5\nvalue = 6.0"] ;
901 -> 903 ;
904 [label="mse = 0.0\nsamples = 2\nvalue = 10.0"] ;
903 -> 904 ;
905 [label="X[0] <= 15516.0\nmse = 22.222\nsamples = 3\nvalue = 3.333"] ;
903 -> 905 ;
906 [label="mse = 0.0\nsamples = 2\nvalue = 0.0"] ;
905 -> 906 ;
907 [label="mse = 0.0\nsamples = 1\nvalue = 10.0"] ;
905 -> 907 ;
908 [label="X[5] <= 6.0\nmse = 47.222\nsamples = 6\nvalue = 8.333"] ;
896 -> 908 ;
909 [label="X[6] <= 16.0\nmse = 22.222\nsamples = 3\nvalue = 3.333"] ;
908 -> 909 ;
910 [label="mse = 0.0\nsamples = 2\nvalue = 0.0"] ;
909 -> 910 ;
911 [label="mse = 0.0\nsamples = 1\nvalue = 10.0"] ;
909 -> 911 ;
912 [label="X[0] <= 10731.0\nmse = 22.222\nsamples = 3\nvalue = 13.333"] ;
908 -> 912 ;
913 [label="mse = 0.0\nsamples = 1\nvalue = 20.0"] ;
912 -> 913 ;
914 [label="mse = 0.0\nsamples = 2\nvalue = 10.0"] ;
912 -> 914 ;
915 [label="X[4] <= 1.5\nmse = 161.0\nsamples = 10\nvalue = 17.0"] ;
877 -> 915 ;
916 [label="X[5] <= 17.0\nmse = 91.667\nsamples = 6\nvalue = 25.0"] ;
915 -> 916 ;
917 [label="X[2] <= 0.5\nmse = 50.0\nsamples = 4\nvalue = 20.0"] ;
916 -> 917 ;
918 [label="mse = 0.0\nsamples = 1\nvalue = 10.0"] ;
917 -> 918 ;
919 [label="X[5] <= 4.5\nmse = 22.222\nsamples = 3\nvalue = 23.333"] ;
917 -> 919 ;
920 [label="mse = 0.0\nsamples = 1\nvalue = 30.0"] ;
919 -> 920 ;
921 [label="mse = 0.0\nsamples = 2\nvalue = 20.0"] ;
919 -> 921 ;
922 [label="X[2] <= 2.5\nmse = 25.0\nsamples = 2\nvalue = 35.0"] ;
916 -> 922 ;
923 [label="mse = 0.0\nsamples = 1\nvalue = 40.0"] ;
922 -> 923 ;
924 [label="mse = 0.0\nsamples = 1\nvalue = 30.0"] ;
922 -> 924 ;
925 [label="X[6] <= 12.5\nmse = 25.0\nsamples = 4\nvalue = 5.0"] ;
915 -> 925 ;
926 [label="mse = 0.0\nsamples = 2\nvalue = 10.0"] ;
925 -> 926 ;
927 [label="mse = 0.0\nsamples = 2\nvalue = 0.0"] ;
925 -> 927 ;
928 [label="X[5] <= 4.5\nmse = 1068.764\nsamples = 187\nvalue = 15.294"] ;
670 -> 928 ;
929 [label="X[6] <= 7.5\nmse = 157.64\nsamples = 50\nvalue = 9.4"] ;
928 -> 929 ;
930 [label="X[1] <= 0.5\nmse = 74.851\nsamples = 43\nvalue = 7.442"] ;
929 -> 930 ;
931 [label="X[0] <= 8684.0\nmse = 23.14\nsamples = 11\nvalue = 3.636"] ;
930 -> 931 ;
932 [label="mse = 0.0\nsamples = 3\nvalue = 0.0"] ;
931 -> 932 ;
933 [label="X[0] <= 16297.5\nmse = 25.0\nsamples = 8\nvalue = 5.0"] ;
931 -> 933 ;
934 [label="X[6] <= 1.5\nmse = 16.0\nsamples = 5\nvalue = 8.0"] ;
933 -> 934 ;
935 [label="mse = 0.0\nsamples = 1\nvalue = 0.0"] ;
934 -> 935 ;
936 [label="mse = 0.0\nsamples = 4\nvalue = 10.0"] ;
934 -> 936 ;
937 [label="mse = 0.0\nsamples = 3\nvalue = 0.0"] ;
933 -> 937 ;
938 [label="X[0] <= 401.0\nmse = 85.938\nsamples = 32\nvalue = 8.75"] ;
930 -> 938 ;
939 [label="mse = 0.0\nsamples = 2\nvalue = 0.0"] ;
938 -> 939 ;
940 [label="X[0] <= 1016.0\nmse = 86.222\nsamples = 30\nvalue = 9.333"] ;
938 -> 940 ;
941 [label="X[0] <= 778.0\nmse = 200.0\nsamples = 3\nvalue = 20.0"] ;
940 -> 941 ;
942 [label="mse = 0.0\nsamples = 2\nvalue = 10.0"] ;
941 -> 942 ;
943 [label="mse = 0.0\nsamples = 1\nvalue = 40.0"] ;
941 -> 943 ;
944 [label="X[0] <= 20115.0\nmse = 59.534\nsamples = 27\nvalue = 8.148"] ;
940 -> 944 ;
945 [label="X[4] <= 5.0\nmse = 58.56\nsamples = 25\nvalue = 8.8"] ;
944 -> 945 ;
946 [label="X[4] <= 2.5\nmse = 58.884\nsamples = 22\nvalue = 9.545"] ;
945 -> 946 ;
947 [label="X[2] <= 0.5\nmse = 40.816\nsamples = 21\nvalue = 8.571"] ;
946 -> 947 ;
948 [label="X[0] <= 4632.0\nmse = 25.0\nsamples = 2\nvalue = 15.0"] ;
947 -> 948 ;
949 [label="mse = 0.0\nsamples = 1\nvalue = 20.0"] ;
948 -> 949 ;
950 [label="mse = 0.0\nsamples = 1\nvalue = 10.0"] ;
948 -> 950 ;
951 [label="X[0] <= 18418.0\nmse = 37.673\nsamples = 19\nvalue = 7.895"] ;
947 -> 951 ;
952 [label="X[5] <= 1.0\nmse = 32.526\nsamples = 17\nvalue = 7.059"] ;
951 -> 952 ;
953 [label="X[0] <= 8836.0\nmse = 18.75\nsamples = 4\nvalue = 2.5"] ;
952 -> 953 ;
954 [label="X[0] <= 7198.0\nmse = 25.0\nsamples = 2\nvalue = 5.0"] ;
953 -> 954 ;
955 [label="mse = 0.0\nsamples = 1\nvalue = 0.0"] ;
954 -> 955 ;
956 [label="mse = 0.0\nsamples = 1\nvalue = 10.0"] ;
954 -> 956 ;
957 [label="mse = 0.0\nsamples = 2\nvalue = 0.0"] ;
953 -> 957 ;
958 [label="X[0] <= 17276.5\nmse = 28.402\nsamples = 13\nvalue = 8.462"] ;
952 -> 958 ;
959 [label="X[2] <= 3.0\nmse = 24.306\nsamples = 12\nvalue = 9.167"] ;
958 -> 959 ;
960 [label="X[4] <= 1.5\nmse = 22.222\nsamples = 6\nvalue = 6.667"] ;
959 -> 960 ;
961 [label="mse = 0.0\nsamples = 4\nvalue = 10.0"] ;
960 -> 961 ;
962 [label="mse = 0.0\nsamples = 2\nvalue = 0.0"] ;
960 -> 962 ;
963 [label="X[6] <= 1.5\nmse = 13.889\nsamples = 6\nvalue = 11.667"] ;
959 -> 963 ;
964 [label="mse = 0.0\nsamples = 1\nvalue = 20.0"] ;
963 -> 964 ;
965 [label="mse = 0.0\nsamples = 5\nvalue = 10.0"] ;
963 -> 965 ;
966 [label="mse = 0.0\nsamples = 1\nvalue = 0.0"] ;
958 -> 966 ;
967 [label="X[4] <= 1.0\nmse = 25.0\nsamples = 2\nvalue = 15.0"] ;
951 -> 967 ;
968 [label="mse = 0.0\nsamples = 1\nvalue = 20.0"] ;
967 -> 968 ;
969 [label="mse = 0.0\nsamples = 1\nvalue = 10.0"] ;
967 -> 969 ;
970 [label="mse = 0.0\nsamples = 1\nvalue = 30.0"] ;
946 -> 970 ;
971 [label="X[0] <= 7809.5\nmse = 22.222\nsamples = 3\nvalue = 3.333"] ;
945 -> 971 ;
972 [label="mse = 0.0\nsamples = 2\nvalue = 0.0"] ;
971 -> 972 ;
973 [label="mse = 0.0\nsamples = 1\nvalue = 10.0"] ;
971 -> 973 ;
974 [label="mse = 0.0\nsamples = 2\nvalue = 0.0"] ;
944 -> 974 ;
975 [label="X[5] <= 1.0\nmse = 497.959\nsamples = 7\nvalue = 21.429"] ;
929 -> 975 ;
976 [label="X[1] <= 0.5\nmse = 400.0\nsamples = 2\nvalue = 50.0"] ;
975 -> 976 ;
977 [label="mse = 0.0\nsamples = 1\nvalue = 30.0"] ;
976 -> 977 ;
978 [label="mse = 0.0\nsamples = 1\nvalue = 70.0"] ;
976 -> 978 ;
979 [label="X[1] <= 0.5\nmse = 80.0\nsamples = 5\nvalue = 10.0"] ;
975 -> 979 ;
980 [label="mse = 0.0\nsamples = 2\nvalue = 20.0"] ;
979 -> 980 ;
981 [label="X[4] <= 1.5\nmse = 22.222\nsamples = 3\nvalue = 3.333"] ;
979 -> 981 ;
982 [label="mse = 0.0\nsamples = 2\nvalue = 0.0"] ;
981 -> 982 ;
983 [label="mse = 0.0\nsamples = 1\nvalue = 10.0"] ;
981 -> 983 ;
984 [label="X[5] <= 17.0\nmse = 1383.984\nsamples = 137\nvalue = 17.445"] ;
928 -> 984 ;
985 [label="X[5] <= 15.5\nmse = 1901.008\nsamples = 95\nvalue = 20.211"] ;
984 -> 985 ;
986 [label="X[2] <= 3.5\nmse = 380.785\nsamples = 88\nvalue = 16.818"] ;
985 -> 986 ;
987 [label="X[6] <= 7.5\nmse = 454.064\nsamples = 46\nvalue = 22.609"] ;
986 -> 987 ;
988 [label="X[1] <= 0.5\nmse = 348.438\nsamples = 32\nvalue = 16.25"] ;
987 -> 988 ;
989 [label="X[0] <= 846.0\nmse = 16.0\nsamples = 5\nvalue = 2.0"] ;
988 -> 989 ;
990 [label="mse = 0.0\nsamples = 1\nvalue = 10.0"] ;
989 -> 990 ;
991 [label="mse = 0.0\nsamples = 4\nvalue = 0.0"] ;
989 -> 991 ;
992 [label="X[6] <= 3.5\nmse = 365.432\nsamples = 27\nvalue = 18.889"] ;
988 -> 992 ;
993 [label="X[6] <= 0.5\nmse = 450.0\nsamples = 16\nvalue = 25.0"] ;
992 -> 993 ;
994 [label="mse = 0.0\nsamples = 2\nvalue = 0.0"] ;
993 -> 994 ;
995 [label="X[0] <= 3769.5\nmse = 412.245\nsamples = 14\nvalue = 28.571"] ;
993 -> 995 ;
996 [label="X[0] <= 2101.5\nmse = 25.0\nsamples = 2\nvalue = 5.0"] ;
995 -> 996 ;
997 [label="mse = 0.0\nsamples = 1\nvalue = 10.0"] ;
996 -> 997 ;
998 [label="mse = 0.0\nsamples = 1\nvalue = 0.0"] ;
996 -> 998 ;
999 [label="X[6] <= 2.5\nmse = 368.75\nsamples = 12\nvalue = 32.5"] ;
995 -> 999 ;
1000 [label="X[0] <= 12487.0\nmse = 25.0\nsamples = 2\nvalue = 55.0"] ;
999 -> 1000 ;
1001 [label="mse = 0.0\nsamples = 1\nvalue = 50.0"] ;
1000 -> 1001 ;
1002 [label="mse = 0.0\nsamples = 1\nvalue = 60.0"] ;
1000 -> 1002 ;
1003 [label="X[0] <= 20612.5\nmse = 316.0\nsamples = 10\nvalue = 28.0"] ;
999 -> 1003 ;
1004 [label="X[0] <= 18021.0\nmse = 254.321\nsamples = 9\nvalue = 31.111"] ;
1003 -> 1004 ;
1005 [label="X[0] <= 14222.0\nmse = 248.98\nsamples = 7\nvalue = 27.143"] ;
1004 -> 1005 ;
1006 [label="X[0] <= 12903.5\nmse = 64.0\nsamples = 5\nvalue = 36.0"] ;
1005 -> 1006 ;
1007 [label="X[0] <= 6008.0\nmse = 18.75\nsamples = 4\nvalue = 32.5"] ;
1006 -> 1007 ;
1008 [label="mse = 0.0\nsamples = 1\nvalue = 40.0"] ;
1007 -> 1008 ;
1009 [label="mse = 0.0\nsamples = 3\nvalue = 30.0"] ;
1007 -> 1009 ;
1010 [label="mse = 0.0\nsamples = 1\nvalue = 50.0"] ;
1006 -> 1010 ;
1011 [label="X[0] <= 15180.5\nmse = 25.0\nsamples = 2\nvalue = 5.0"] ;
1005 -> 1011 ;
1012 [label="mse = 0.0\nsamples = 1\nvalue = 0.0"] ;
1011 -> 1012 ;
1013 [label="mse = 0.0\nsamples = 1\nvalue = 10.0"] ;
1011 -> 1013 ;
1014 [label="X[0] <= 20336.5\nmse = 25.0\nsamples = 2\nvalue = 45.0"] ;
1004 -> 1014 ;
1015 [label="mse = 0.0\nsamples = 1\nvalue = 50.0"] ;
1014 -> 1015 ;
1016 [label="mse = 0.0\nsamples = 1\nvalue = 40.0"] ;
1014 -> 1016 ;
1017 [label="mse = 0.0\nsamples = 1\nvalue = 0.0"] ;
1003 -> 1017 ;
1018 [label="X[0] <= 16217.5\nmse = 109.091\nsamples = 11\nvalue = 10.0"] ;
992 -> 1018 ;
1019 [label="X[0] <= 12079.5\nmse = 24.49\nsamples = 7\nvalue = 5.714"] ;
1018 -> 1019 ;
1020 [label="X[6] <= 5.5\nmse = 16.0\nsamples = 5\nvalue = 8.0"] ;
1019 -> 1020 ;
1021 [label="X[3] <= 4.5\nmse = 25.0\nsamples = 2\nvalue = 5.0"] ;
1020 -> 1021 ;
1022 [label="mse = 0.0\nsamples = 1\nvalue = 0.0"] ;
1021 -> 1022 ;
1023 [label="mse = 0.0\nsamples = 1\nvalue = 10.0"] ;
1021 -> 1023 ;
1024 [label="mse = 0.0\nsamples = 3\nvalue = 10.0"] ;
1020 -> 1024 ;
1025 [label="mse = 0.0\nsamples = 2\nvalue = 0.0"] ;
1019 -> 1025 ;
1026 [label="X[0] <= 18218.0\nmse = 168.75\nsamples = 4\nvalue = 17.5"] ;
1018 -> 1026 ;
1027 [label="mse = 0.0\nsamples = 2\nvalue = 30.0"] ;
1026 -> 1027 ;
1028 [label="X[2] <= 1.5\nmse = 25.0\nsamples = 2\nvalue = 5.0"] ;
1026 -> 1028 ;
1029 [label="mse = 0.0\nsamples = 1\nvalue = 10.0"] ;
1028 -> 1029 ;
1030 [label="mse = 0.0\nsamples = 1\nvalue = 0.0"] ;
1028 -> 1030 ;
1031 [label="X[0] <= 2262.0\nmse = 391.837\nsamples = 14\nvalue = 37.143"] ;
987 -> 1031 ;
1032 [label="X[2] <= 2.0\nmse = 100.0\nsamples = 2\nvalue = 60.0"] ;
1031 -> 1032 ;
1033 [label="mse = 0.0\nsamples = 1\nvalue = 50.0"] ;
1032 -> 1033 ;
1034 [label="mse = 0.0\nsamples = 1\nvalue = 70.0"] ;
1032 -> 1034 ;
1035 [label="X[2] <= 2.5\nmse = 338.889\nsamples = 12\nvalue = 33.333"] ;
1031 -> 1035 ;
1036 [label="X[2] <= 1.0\nmse = 283.951\nsamples = 9\nvalue = 37.778"] ;
1035 -> 1036 ;
1037 [label="mse = 0.0\nsamples = 1\nvalue = 20.0"] ;
1036 -> 1037 ;
1038 [label="X[6] <= 10.0\nmse = 275.0\nsamples = 8\nvalue = 40.0"] ;
1036 -> 1038 ;
1039 [label="X[6] <= 8.5\nmse = 466.667\nsamples = 3\nvalue = 30.0"] ;
1038 -> 1039 ;
1040 [label="mse = 0.0\nsamples = 1\nvalue = 50.0"] ;
1039 -> 1040 ;
1041 [label="X[1] <= 0.5\nmse = 400.0\nsamples = 2\nvalue = 20.0"] ;
1039 -> 1041 ;
1042 [label="mse = 0.0\nsamples = 1\nvalue = 40.0"] ;
1041 -> 1042 ;
1043 [label="mse = 0.0\nsamples = 1\nvalue = 0.0"] ;
1041 -> 1043 ;
1044 [label="X[0] <= 5530.5\nmse = 64.0\nsamples = 5\nvalue = 46.0"] ;
1038 -> 1044 ;
1045 [label="mse = 0.0\nsamples = 2\nvalue = 40.0"] ;
1044 -> 1045 ;
1046 [label="X[6] <= 14.0\nmse = 66.667\nsamples = 3\nvalue = 50.0"] ;
1044 -> 1046 ;
1047 [label="mse = 0.0\nsamples = 1\nvalue = 60.0"] ;
1046 -> 1047 ;
1048 [label="X[4] <= 1.5\nmse = 25.0\nsamples = 2\nvalue = 45.0"] ;
1046 -> 1048 ;
1049 [label="mse = 0.0\nsamples = 1\nvalue = 40.0"] ;
1048 -> 1049 ;
1050 [label="mse = 0.0\nsamples = 1\nvalue = 50.0"] ;
1048 -> 1050 ;
1051 [label="X[3] <= 4.5\nmse = 266.667\nsamples = 3\nvalue = 20.0"] ;
1035 -> 1051 ;
1052 [label="X[6] <= 13.5\nmse = 100.0\nsamples = 2\nvalue = 10.0"] ;
1051 -> 1052 ;
1053 [label="mse = 0.0\nsamples = 1\nvalue = 20.0"] ;
1052 -> 1053 ;
1054 [label="mse = 0.0\nsamples = 1\nvalue = 0.0"] ;
1052 -> 1054 ;
1055 [label="mse = 0.0\nsamples = 1\nvalue = 40.0"] ;
1051 -> 1055 ;
1056 [label="X[5] <= 13.5\nmse = 223.583\nsamples = 42\nvalue = 10.476"] ;
986 -> 1056 ;
1057 [label="X[5] <= 10.5\nmse = 69.321\nsamples = 38\nvalue = 8.684"] ;
1056 -> 1057 ;
1058 [label="X[0] <= 12066.0\nmse = 68.245\nsamples = 35\nvalue = 9.429"] ;
1057 -> 1058 ;
1059 [label="X[6] <= 4.0\nmse = 69.421\nsamples = 22\nvalue = 11.818"] ;
1058 -> 1059 ;
1060 [label="X[1] <= 0.5\nmse = 62.109\nsamples = 16\nvalue = 14.375"] ;
1059 -> 1060 ;
1061 [label="X[6] <= 1.5\nmse = 100.0\nsamples = 2\nvalue = 20.0"] ;
1060 -> 1061 ;
1062 [label="mse = 0.0\nsamples = 1\nvalue = 10.0"] ;
1061 -> 1062 ;
1063 [label="mse = 0.0\nsamples = 1\nvalue = 30.0"] ;
1061 -> 1063 ;
1064 [label="X[0] <= 823.0\nmse = 51.531\nsamples = 14\nvalue = 13.571"] ;
1060 -> 1064 ;
1065 [label="mse = 0.0\nsamples = 3\nvalue = 10.0"] ;
1064 -> 1065 ;
1066 [label="X[0] <= 925.5\nmse = 61.157\nsamples = 11\nvalue = 14.545"] ;
1064 -> 1066 ;
1067 [label="mse = 0.0\nsamples = 1\nvalue = 30.0"] ;
1066 -> 1067 ;
1068 [label="X[0] <= 1398.0\nmse = 41.0\nsamples = 10\nvalue = 13.0"] ;
1066 -> 1068 ;
1069 [label="X[0] <= 991.5\nmse = 25.0\nsamples = 2\nvalue = 5.0"] ;
1068 -> 1069 ;
1070 [label="mse = 0.0\nsamples = 1\nvalue = 10.0"] ;
1069 -> 1070 ;
1071 [label="mse = 0.0\nsamples = 1\nvalue = 0.0"] ;
1069 -> 1071 ;
1072 [label="X[0] <= 5278.0\nmse = 25.0\nsamples = 8\nvalue = 15.0"] ;
1068 -> 1072 ;
1073 [label="mse = 0.0\nsamples = 2\nvalue = 20.0"] ;
1072 -> 1073 ;
1074 [label="X[5] <= 6.0\nmse = 22.222\nsamples = 6\nvalue = 13.333"] ;
1072 -> 1074 ;
1075 [label="mse = 0.0\nsamples = 1\nvalue = 20.0"] ;
1074 -> 1075 ;
1076 [label="X[3] <= 4.0\nmse = 16.0\nsamples = 5\nvalue = 12.0"] ;
1074 -> 1076 ;
1077 [label="mse = 0.0\nsamples = 4\nvalue = 10.0"] ;
1076 -> 1077 ;
1078 [label="mse = 0.0\nsamples = 1\nvalue = 20.0"] ;
1076 -> 1078 ;
1079 [label="X[6] <= 6.0\nmse = 25.0\nsamples = 6\nvalue = 5.0"] ;
1059 -> 1079 ;
1080 [label="mse = 0.0\nsamples = 1\nvalue = 0.0"] ;
1079 -> 1080 ;
1081 [label="X[0] <= 4537.0\nmse = 24.0\nsamples = 5\nvalue = 6.0"] ;
1079 -> 1081 ;
1082 [label="X[5] <= 8.0\nmse = 22.222\nsamples = 3\nvalue = 3.333"] ;
1081 -> 1082 ;
1083 [label="mse = 0.0\nsamples = 2\nvalue = 0.0"] ;
1082 -> 1083 ;
1084 [label="mse = 0.0\nsamples = 1\nvalue = 10.0"] ;
1082 -> 1084 ;
1085 [label="mse = 0.0\nsamples = 2\nvalue = 10.0"] ;
1081 -> 1085 ;
1086 [label="X[6] <= 5.0\nmse = 40.237\nsamples = 13\nvalue = 5.385"] ;
1058 -> 1086 ;
1087 [label="X[6] <= 2.5\nmse = 20.408\nsamples = 7\nvalue = 2.857"] ;
1086 -> 1087 ;
1088 [label="X[0] <= 14980.0\nmse = 22.222\nsamples = 3\nvalue = 6.667"] ;
1087 -> 1088 ;
1089 [label="mse = 0.0\nsamples = 1\nvalue = 0.0"] ;
1088 -> 1089 ;
1090 [label="mse = 0.0\nsamples = 2\nvalue = 10.0"] ;
1088 -> 1090 ;
1091 [label="mse = 0.0\nsamples = 4\nvalue = 0.0"] ;
1087 -> 1091 ;
1092 [label="X[0] <= 15415.0\nmse = 47.222\nsamples = 6\nvalue = 8.333"] ;
1086 -> 1092 ;
1093 [label="X[0] <= 14026.5\nmse = 25.0\nsamples = 2\nvalue = 15.0"] ;
1092 -> 1093 ;
1094 [label="mse = 0.0\nsamples = 1\nvalue = 10.0"] ;
1093 -> 1094 ;
1095 [label="mse = 0.0\nsamples = 1\nvalue = 20.0"] ;
1093 -> 1095 ;
1096 [label="X[0] <= 16190.0\nmse = 25.0\nsamples = 4\nvalue = 5.0"] ;
1092 -> 1096 ;
1097 [label="mse = 0.0\nsamples = 2\nvalue = 0.0"] ;
1096 -> 1097 ;
1098 [label="mse = 0.0\nsamples = 2\nvalue = 10.0"] ;
1096 -> 1098 ;
1099 [label="mse = 0.0\nsamples = 3\nvalue = 0.0"] ;
1057 -> 1099 ;
1100 [label="X[0] <= 12958.5\nmse = 1368.75\nsamples = 4\nvalue = 27.5"] ;
1056 -> 1100 ;
1101 [label="X[6] <= 4.0\nmse = 1225.0\nsamples = 2\nvalue = 55.0"] ;
1100 -> 1101 ;
1102 [label="mse = 0.0\nsamples = 1\nvalue = 20.0"] ;
1101 -> 1102 ;
1103 [label="mse = 0.0\nsamples = 1\nvalue = 90.0"] ;
1101 -> 1103 ;
1104 [label="mse = 0.0\nsamples = 2\nvalue = 0.0"] ;
1100 -> 1104 ;
1105 [label="X[1] <= 0.5\nmse = 19048.98\nsamples = 7\nvalue = 62.857"] ;
985 -> 1105 ;
1106 [label="mse = 0.0\nsamples = 1\nvalue = 400.0"] ;
1105 -> 1106 ;
1107 [label="X[0] <= 5200.0\nmse = 122.222\nsamples = 6\nvalue = 6.667"] ;
1105 -> 1107 ;
1108 [label="X[0] <= 3624.5\nmse = 225.0\nsamples = 2\nvalue = 15.0"] ;
1107 -> 1108 ;
1109 [label="mse = 0.0\nsamples = 1\nvalue = 0.0"] ;
1108 -> 1109 ;
1110 [label="mse = 0.0\nsamples = 1\nvalue = 30.0"] ;
1108 -> 1110 ;
1111 [label="X[0] <= 18300.5\nmse = 18.75\nsamples = 4\nvalue = 2.5"] ;
1107 -> 1111 ;
1112 [label="mse = 0.0\nsamples = 3\nvalue = 0.0"] ;
1111 -> 1112 ;
1113 [label="mse = 0.0\nsamples = 1\nvalue = 10.0"] ;
1111 -> 1113 ;
1114 [label="X[2] <= 3.5\nmse = 158.107\nsamples = 42\nvalue = 11.19"] ;
984 -> 1114 ;
1115 [label="X[2] <= 2.5\nmse = 444.444\nsamples = 9\nvalue = 20.0"] ;
1114 -> 1115 ;
1116 [label="X[6] <= 9.5\nmse = 275.0\nsamples = 8\nvalue = 15.0"] ;
1115 -> 1116 ;
1117 [label="X[0] <= 20645.0\nmse = 55.556\nsamples = 6\nvalue = 6.667"] ;
1116 -> 1117 ;
1118 [label="X[1] <= 0.5\nmse = 24.0\nsamples = 5\nvalue = 4.0"] ;
1117 -> 1118 ;
1119 [label="mse = 0.0\nsamples = 2\nvalue = 10.0"] ;
1118 -> 1119 ;
1120 [label="mse = 0.0\nsamples = 3\nvalue = 0.0"] ;
1118 -> 1120 ;
1121 [label="mse = 0.0\nsamples = 1\nvalue = 20.0"] ;
1117 -> 1121 ;
1122 [label="X[0] <= 2076.5\nmse = 100.0\nsamples = 2\nvalue = 40.0"] ;
1116 -> 1122 ;
1123 [label="mse = 0.0\nsamples = 1\nvalue = 50.0"] ;
1122 -> 1123 ;
1124 [label="mse = 0.0\nsamples = 1\nvalue = 30.0"] ;
1122 -> 1124 ;
1125 [label="mse = 0.0\nsamples = 1\nvalue = 60.0"] ;
1115 -> 1125 ;
1126 [label="X[0] <= 18347.5\nmse = 53.076\nsamples = 33\nvalue = 8.788"] ;
1114 -> 1126 ;
1127 [label="X[0] <= 14912.0\nmse = 51.605\nsamples = 29\nvalue = 9.655"] ;
1126 -> 1127 ;
1128 [label="X[1] <= 0.5\nmse = 48.669\nsamples = 26\nvalue = 8.846"] ;
1127 -> 1128 ;
1129 [label="X[0] <= 939.0\nmse = 25.0\nsamples = 6\nvalue = 5.0"] ;
1128 -> 1129 ;
1130 [label="mse = 0.0\nsamples = 1\nvalue = 10.0"] ;
1129 -> 1130 ;
1131 [label="X[6] <= 2.0\nmse = 24.0\nsamples = 5\nvalue = 4.0"] ;
1129 -> 1131 ;
1132 [label="mse = 0.0\nsamples = 1\nvalue = 10.0"] ;
1131 -> 1132 ;
1133 [label="X[4] <= 4.0\nmse = 18.75\nsamples = 4\nvalue = 2.5"] ;
1131 -> 1133 ;
1134 [label="mse = 0.0\nsamples = 2\nvalue = 0.0"] ;
1133 -> 1134 ;
1135 [label="X[0] <= 4835.0\nmse = 25.0\nsamples = 2\nvalue = 5.0"] ;
1133 -> 1135 ;
1136 [label="mse = 0.0\nsamples = 1\nvalue = 0.0"] ;
1135 -> 1136 ;
1137 [label="mse = 0.0\nsamples = 1\nvalue = 10.0"] ;
1135 -> 1137 ;
1138 [label="X[0] <= 288.5\nmse = 50.0\nsamples = 20\nvalue = 10.0"] ;
1128 -> 1138 ;
1139 [label="mse = 0.0\nsamples = 1\nvalue = 0.0"] ;
1138 -> 1139 ;
1140 [label="X[0] <= 13971.5\nmse = 47.091\nsamples = 19\nvalue = 10.526"] ;
1138 -> 1140 ;
1141 [label="X[0] <= 684.0\nmse = 43.21\nsamples = 18\nvalue = 11.111"] ;
1140 -> 1141 ;
1142 [label="X[4] <= 1.5\nmse = 75.0\nsamples = 4\nvalue = 15.0"] ;
1141 -> 1142 ;
1143 [label="mse = 0.0\nsamples = 3\nvalue = 10.0"] ;
1142 -> 1143 ;
1144 [label="mse = 0.0\nsamples = 1\nvalue = 30.0"] ;
1142 -> 1144 ;
1145 [label="X[0] <= 8838.0\nmse = 28.571\nsamples = 14\nvalue = 10.0"] ;
1141 -> 1145 ;
1146 [label="X[0] <= 1570.5\nmse = 24.306\nsamples = 12\nvalue = 9.167"] ;
1145 -> 1146 ;
1147 [label="X[0] <= 1182.5\nmse = 22.222\nsamples = 3\nvalue = 6.667"] ;
1146 -> 1147 ;
1148 [label="mse = 0.0\nsamples = 2\nvalue = 10.0"] ;
1147 -> 1148 ;
1149 [label="mse = 0.0\nsamples = 1\nvalue = 0.0"] ;
1147 -> 1149 ;
1150 [label="X[0] <= 2311.5\nmse = 22.222\nsamples = 9\nvalue = 10.0"] ;
1146 -> 1150 ;
1151 [label="mse = 0.0\nsamples = 1\nvalue = 20.0"] ;
1150 -> 1151 ;
1152 [label="X[0] <= 6940.0\nmse = 10.938\nsamples = 8\nvalue = 8.75"] ;
1150 -> 1152 ;
1153 [label="mse = 0.0\nsamples = 4\nvalue = 10.0"] ;
1152 -> 1153 ;
1154 [label="X[0] <= 8156.5\nmse = 18.75\nsamples = 4\nvalue = 7.5"] ;
1152 -> 1154 ;
1155 [label="mse = 0.0\nsamples = 1\nvalue = 0.0"] ;
1154 -> 1155 ;
1156 [label="mse = 0.0\nsamples = 3\nvalue = 10.0"] ;
1154 -> 1156 ;
1157 [label="X[0] <= 10998.0\nmse = 25.0\nsamples = 2\nvalue = 15.0"] ;
1145 -> 1157 ;
1158 [label="mse = 0.0\nsamples = 1\nvalue = 20.0"] ;
1157 -> 1158 ;
1159 [label="mse = 0.0\nsamples = 1\nvalue = 10.0"] ;
1157 -> 1159 ;
1160 [label="mse = 0.0\nsamples = 1\nvalue = 0.0"] ;
1140 -> 1160 ;
1161 [label="X[4] <= 1.5\nmse = 22.222\nsamples = 3\nvalue = 16.667"] ;
1127 -> 1161 ;
1162 [label="X[6] <= 13.0\nmse = 25.0\nsamples = 2\nvalue = 15.0"] ;
1161 -> 1162 ;
1163 [label="mse = 0.0\nsamples = 1\nvalue = 10.0"] ;
1162 -> 1163 ;
1164 [label="mse = 0.0\nsamples = 1\nvalue = 20.0"] ;
1162 -> 1164 ;
1165 [label="mse = 0.0\nsamples = 1\nvalue = 20.0"] ;
1161 -> 1165 ;
1166 [label="X[0] <= 19797.0\nmse = 18.75\nsamples = 4\nvalue = 2.5"] ;
1126 -> 1166 ;
1167 [label="mse = 0.0\nsamples = 3\nvalue = 0.0"] ;
1166 -> 1167 ;
1168 [label="mse = 0.0\nsamples = 1\nvalue = 10.0"] ;
1166 -> 1168 ;
1169 [label="X[0] <= 20882.5\nmse = 34225.0\nsamples = 2\nvalue = 215.0"] ;
669 -> 1169 ;
1170 [label="mse = 0.0\nsamples = 1\nvalue = 400.0"] ;
1169 -> 1170 ;
1171 [label="mse = 0.0\nsamples = 1\nvalue = 30.0"] ;
1169 -> 1171 ;
1172 [label="X[0] <= 23718.5\nmse = 157.426\nsamples = 85\nvalue = 7.529"] ;
668 -> 1172 ;
1173 [label="X[0] <= 22104.0\nmse = 127.072\nsamples = 83\nvalue = 6.988"] ;
1172 -> 1173 ;
1174 [label="X[4] <= 0.5\nmse = 52.96\nsamples = 50\nvalue = 4.8"] ;
1173 -> 1174 ;
1175 [label="X[5] <= 9.5\nmse = 155.556\nsamples = 3\nvalue = 13.333"] ;
1174 -> 1175 ;
1176 [label="X[0] <= 21667.0\nmse = 25.0\nsamples = 2\nvalue = 5.0"] ;
1175 -> 1176 ;
1177 [label="mse = 0.0\nsamples = 1\nvalue = 0.0"] ;
1176 -> 1177 ;
1178 [label="mse = 0.0\nsamples = 1\nvalue = 10.0"] ;
1176 -> 1178 ;
1179 [label="mse = 0.0\nsamples = 1\nvalue = 30.0"] ;
1175 -> 1179 ;
1180 [label="X[0] <= 21444.0\nmse = 41.467\nsamples = 47\nvalue = 4.255"] ;
1174 -> 1180 ;
1181 [label="X[0] <= 21330.0\nmse = 45.918\nsamples = 28\nvalue = 5.714"] ;
1180 -> 1181 ;
1182 [label="X[6] <= 9.5\nmse = 41.966\nsamples = 23\nvalue = 4.348"] ;
1181 -> 1182 ;
1183 [label="X[0] <= 20979.5\nmse = 21.607\nsamples = 19\nvalue = 3.158"] ;
1182 -> 1183 ;
1184 [label="mse = 0.0\nsamples = 4\nvalue = 0.0"] ;
1183 -> 1184 ;
1185 [label="X[4] <= 4.5\nmse = 24.0\nsamples = 15\nvalue = 4.0"] ;
1183 -> 1185 ;
1186 [label="X[0] <= 20990.0\nmse = 22.959\nsamples = 14\nvalue = 3.571"] ;
1185 -> 1186 ;
1187 [label="mse = 0.0\nsamples = 1\nvalue = 10.0"] ;
1186 -> 1187 ;
1188 [label="X[2] <= 2.5\nmse = 21.302\nsamples = 13\nvalue = 3.077"] ;
1186 -> 1188 ;
1189 [label="mse = 0.0\nsamples = 1\nvalue = 10.0"] ;
1188 -> 1189 ;
1190 [label="X[0] <= 21185.0\nmse = 18.75\nsamples = 12\nvalue = 2.5"] ;
1188 -> 1190 ;
1191 [label="mse = 0.0\nsamples = 4\nvalue = 0.0"] ;
1190 -> 1191 ;
1192 [label="X[0] <= 21186.5\nmse = 23.438\nsamples = 8\nvalue = 3.75"] ;
1190 -> 1192 ;
1193 [label="mse = 0.0\nsamples = 1\nvalue = 10.0"] ;
1192 -> 1193 ;
1194 [label="X[6] <= 1.5\nmse = 20.408\nsamples = 7\nvalue = 2.857"] ;
1192 -> 1194 ;
1195 [label="mse = 0.0\nsamples = 2\nvalue = 0.0"] ;
1194 -> 1195 ;
1196 [label="X[0] <= 21212.0\nmse = 24.0\nsamples = 5\nvalue = 4.0"] ;
1194 -> 1196 ;
1197 [label="mse = 0.0\nsamples = 1\nvalue = 10.0"] ;
1196 -> 1197 ;
1198 [label="X[3] <= 1.5\nmse = 18.75\nsamples = 4\nvalue = 2.5"] ;
1196 -> 1198 ;
1199 [label="mse = 0.0\nsamples = 2\nvalue = 0.0"] ;
1198 -> 1199 ;
1200 [label="X[5] <= 8.0\nmse = 25.0\nsamples = 2\nvalue = 5.0"] ;
1198 -> 1200 ;
1201 [label="mse = 0.0\nsamples = 1\nvalue = 10.0"] ;
1200 -> 1201 ;
1202 [label="mse = 0.0\nsamples = 1\nvalue = 0.0"] ;
1200 -> 1202 ;
1203 [label="mse = 0.0\nsamples = 1\nvalue = 10.0"] ;
1185 -> 1203 ;
1204 [label="X[0] <= 21074.5\nmse = 100.0\nsamples = 4\nvalue = 10.0"] ;
1182 -> 1204 ;
1205 [label="mse = 0.0\nsamples = 2\nvalue = 20.0"] ;
1204 -> 1205 ;
1206 [label="mse = 0.0\nsamples = 2\nvalue = 0.0"] ;
1204 -> 1206 ;
1207 [label="X[0] <= 21353.5\nmse = 16.0\nsamples = 5\nvalue = 12.0"] ;
1181 -> 1207 ;
1208 [label="mse = 0.0\nsamples = 1\nvalue = 20.0"] ;
1207 -> 1208 ;
1209 [label="mse = 0.0\nsamples = 4\nvalue = 10.0"] ;
1207 -> 1209 ;
1210 [label="X[5] <= 16.5\nmse = 27.147\nsamples = 19\nvalue = 2.105"] ;
1180 -> 1210 ;
1211 [label="mse = 0.0\nsamples = 12\nvalue = 0.0"] ;
1210 -> 1211 ;
1212 [label="X[0] <= 21815.0\nmse = 53.061\nsamples = 7\nvalue = 5.714"] ;
1210 -> 1212 ;
1213 [label="X[4] <= 1.5\nmse = 16.0\nsamples = 5\nvalue = 2.0"] ;
1212 -> 1213 ;
1214 [label="X[0] <= 21693.5\nmse = 25.0\nsamples = 2\nvalue = 5.0"] ;
1213 -> 1214 ;
1215 [label="mse = 0.0\nsamples = 1\nvalue = 10.0"] ;
1214 -> 1215 ;
1216 [label="mse = 0.0\nsamples = 1\nvalue = 0.0"] ;
1214 -> 1216 ;
1217 [label="mse = 0.0\nsamples = 3\nvalue = 0.0"] ;
1213 -> 1217 ;
1218 [label="X[0] <= 21906.0\nmse = 25.0\nsamples = 2\nvalue = 15.0"] ;
1212 -> 1218 ;
1219 [label="mse = 0.0\nsamples = 1\nvalue = 20.0"] ;
1218 -> 1219 ;
1220 [label="mse = 0.0\nsamples = 1\nvalue = 10.0"] ;
1218 -> 1220 ;
1221 [label="X[0] <= 22304.0\nmse = 221.12\nsamples = 33\nvalue = 10.303"] ;
1173 -> 1221 ;
1222 [label="X[0] <= 22196.0\nmse = 491.667\nsamples = 6\nvalue = 25.0"] ;
1221 -> 1222 ;
1223 [label="X[5] <= 9.5\nmse = 66.667\nsamples = 3\nvalue = 10.0"] ;
1222 -> 1223 ;
1224 [label="mse = 0.0\nsamples = 1\nvalue = 0.0"] ;
1223 -> 1224 ;
1225 [label="X[6] <= 9.0\nmse = 25.0\nsamples = 2\nvalue = 15.0"] ;
1223 -> 1225 ;
1226 [label="mse = 0.0\nsamples = 1\nvalue = 10.0"] ;
1225 -> 1226 ;
1227 [label="mse = 0.0\nsamples = 1\nvalue = 20.0"] ;
1225 -> 1227 ;
1228 [label="X[6] <= 4.0\nmse = 466.667\nsamples = 3\nvalue = 40.0"] ;
1222 -> 1228 ;
1229 [label="mse = 0.0\nsamples = 1\nvalue = 70.0"] ;
1228 -> 1229 ;
1230 [label="X[5] <= 3.5\nmse = 25.0\nsamples = 2\nvalue = 25.0"] ;
1228 -> 1230 ;
1231 [label="mse = 0.0\nsamples = 1\nvalue = 20.0"] ;
1230 -> 1231 ;
1232 [label="mse = 0.0\nsamples = 1\nvalue = 30.0"] ;
1230 -> 1232 ;
1233 [label="X[6] <= 2.0\nmse = 102.332\nsamples = 27\nvalue = 7.037"] ;
1221 -> 1233 ;
1234 [label="X[2] <= 3.0\nmse = 250.0\nsamples = 4\nvalue = 20.0"] ;
1233 -> 1234 ;
1235 [label="X[0] <= 22700.5\nmse = 25.0\nsamples = 2\nvalue = 35.0"] ;
1234 -> 1235 ;
1236 [label="mse = 0.0\nsamples = 1\nvalue = 40.0"] ;
1235 -> 1236 ;
1237 [label="mse = 0.0\nsamples = 1\nvalue = 30.0"] ;
1235 -> 1237 ;
1238 [label="X[0] <= 22641.0\nmse = 25.0\nsamples = 2\nvalue = 5.0"] ;
1234 -> 1238 ;
1239 [label="mse = 0.0\nsamples = 1\nvalue = 10.0"] ;
1238 -> 1239 ;
1240 [label="mse = 0.0\nsamples = 1\nvalue = 0.0"] ;
1238 -> 1240 ;
1241 [label="X[5] <= 6.0\nmse = 42.344\nsamples = 23\nvalue = 4.783"] ;
1233 -> 1241 ;
1242 [label="X[6] <= 5.0\nmse = 40.0\nsamples = 5\nvalue = 10.0"] ;
1241 -> 1242 ;
1243 [label="mse = 0.0\nsamples = 1\nvalue = 0.0"] ;
1242 -> 1243 ;
1244 [label="X[0] <= 22560.0\nmse = 18.75\nsamples = 4\nvalue = 12.5"] ;
1242 -> 1244 ;
1245 [label="mse = 0.0\nsamples = 1\nvalue = 20.0"] ;
1244 -> 1245 ;
1246 [label="mse = 0.0\nsamples = 3\nvalue = 10.0"] ;
1244 -> 1246 ;
1247 [label="X[0] <= 22688.5\nmse = 33.333\nsamples = 18\nvalue = 3.333"] ;
1241 -> 1247 ;
1248 [label="X[3] <= 1.5\nmse = 55.556\nsamples = 6\nvalue = 6.667"] ;
1247 -> 1248 ;
1249 [label="X[0] <= 22426.5\nmse = 24.0\nsamples = 5\nvalue = 4.0"] ;
1248 -> 1249 ;
1250 [label="mse = 0.0\nsamples = 2\nvalue = 0.0"] ;
1249 -> 1250 ;
1251 [label="X[0] <= 22587.0\nmse = 22.222\nsamples = 3\nvalue = 6.667"] ;
1249 -> 1251 ;
1252 [label="mse = 0.0\nsamples = 2\nvalue = 10.0"] ;
1251 -> 1252 ;
1253 [label="mse = 0.0\nsamples = 1\nvalue = 0.0"] ;
1251 -> 1253 ;
1254 [label="mse = 0.0\nsamples = 1\nvalue = 20.0"] ;
1248 -> 1254 ;
1255 [label="X[6] <= 5.0\nmse = 13.889\nsamples = 12\nvalue = 1.667"] ;
1247 -> 1255 ;
1256 [label="mse = 0.0\nsamples = 6\nvalue = 0.0"] ;
1255 -> 1256 ;
1257 [label="X[0] <= 23473.5\nmse = 22.222\nsamples = 6\nvalue = 3.333"] ;
1255 -> 1257 ;
1258 [label="X[0] <= 23104.5\nmse = 16.0\nsamples = 5\nvalue = 2.0"] ;
1257 -> 1258 ;
1259 [label="X[6] <= 11.0\nmse = 25.0\nsamples = 2\nvalue = 5.0"] ;
1258 -> 1259 ;
1260 [label="mse = 0.0\nsamples = 1\nvalue = 10.0"] ;
1259 -> 1260 ;
1261 [label="mse = 0.0\nsamples = 1\nvalue = 0.0"] ;
1259 -> 1261 ;
1262 [label="mse = 0.0\nsamples = 3\nvalue = 0.0"] ;
1258 -> 1262 ;
1263 [label="mse = 0.0\nsamples = 1\nvalue = 10.0"] ;
1257 -> 1263 ;
1264 [label="X[4] <= 1.5\nmse = 900.0\nsamples = 2\nvalue = 30.0"] ;
1172 -> 1264 ;
1265 [label="mse = 0.0\nsamples = 1\nvalue = 60.0"] ;
1264 -> 1265 ;
1266 [label="mse = 0.0\nsamples = 1\nvalue = 0.0"] ;
1264 -> 1266 ;
1267 [label="X[1] <= 0.5\nmse = 873.165\nsamples = 434\nvalue = 17.131"] ;
667 -> 1267 ;
1268 [label="X[5] <= 3.5\nmse = 164.036\nsamples = 92\nvalue = 11.087"] ;
1267 -> 1268 ;
1269 [label="X[6] <= 2.0\nmse = 18.75\nsamples = 8\nvalue = 2.5"] ;
1268 -> 1269 ;
1270 [label="X[6] <= 0.5\nmse = 22.222\nsamples = 3\nvalue = 6.667"] ;
1269 -> 1270 ;
1271 [label="mse = 0.0\nsamples = 1\nvalue = 0.0"] ;
1270 -> 1271 ;
1272 [label="mse = 0.0\nsamples = 2\nvalue = 10.0"] ;
1270 -> 1272 ;
1273 [label="mse = 0.0\nsamples = 5\nvalue = 0.0"] ;
1269 -> 1273 ;
1274 [label="X[5] <= 17.0\nmse = 170.181\nsamples = 84\nvalue = 11.905"] ;
1268 -> 1274 ;
1275 [label="X[3] <= 0.5\nmse = 198.462\nsamples = 66\nvalue = 13.485"] ;
1274 -> 1275 ;
1276 [label="X[0] <= 20475.5\nmse = 99.408\nsamples = 26\nvalue = 9.231"] ;
1275 -> 1276 ;
1277 [label="X[0] <= 18379.5\nmse = 50.97\nsamples = 19\nvalue = 7.368"] ;
1276 -> 1277 ;
1278 [label="X[0] <= 10781.5\nmse = 48.438\nsamples = 16\nvalue = 8.75"] ;
1277 -> 1278 ;
1279 [label="X[5] <= 11.0\nmse = 24.691\nsamples = 9\nvalue = 5.556"] ;
1278 -> 1279 ;
1280 [label="X[0] <= 7394.0\nmse = 22.222\nsamples = 6\nvalue = 3.333"] ;
1279 -> 1280 ;
1281 [label="X[6] <= 10.5\nmse = 25.0\nsamples = 4\nvalue = 5.0"] ;
1280 -> 1281 ;
1282 [label="X[4] <= 2.0\nmse = 22.222\nsamples = 3\nvalue = 6.667"] ;
1281 -> 1282 ;
1283 [label="mse = 0.0\nsamples = 1\nvalue = 0.0"] ;
1282 -> 1283 ;
1284 [label="mse = 0.0\nsamples = 2\nvalue = 10.0"] ;
1282 -> 1284 ;
1285 [label="mse = 0.0\nsamples = 1\nvalue = 0.0"] ;
1281 -> 1285 ;
1286 [label="mse = 0.0\nsamples = 2\nvalue = 0.0"] ;
1280 -> 1286 ;
1287 [label="mse = 0.0\nsamples = 3\nvalue = 10.0"] ;
1279 -> 1287 ;
1288 [label="X[0] <= 16993.5\nmse = 48.98\nsamples = 7\nvalue = 12.857"] ;
1278 -> 1288 ;
1289 [label="X[0] <= 13951.0\nmse = 18.75\nsamples = 4\nvalue = 17.5"] ;
1288 -> 1289 ;
1290 [label="mse = 0.0\nsamples = 2\nvalue = 20.0"] ;
1289 -> 1290 ;
1291 [label="X[0] <= 15257.0\nmse = 25.0\nsamples = 2\nvalue = 15.0"] ;
1289 -> 1291 ;
1292 [label="mse = 0.0\nsamples = 1\nvalue = 10.0"] ;
1291 -> 1292 ;
1293 [label="mse = 0.0\nsamples = 1\nvalue = 20.0"] ;
1291 -> 1293 ;
1294 [label="X[5] <= 6.0\nmse = 22.222\nsamples = 3\nvalue = 6.667"] ;
1288 -> 1294 ;
1295 [label="mse = 0.0\nsamples = 1\nvalue = 0.0"] ;
1294 -> 1295 ;
1296 [label="mse = 0.0\nsamples = 2\nvalue = 10.0"] ;
1294 -> 1296 ;
1297 [label="mse = 0.0\nsamples = 3\nvalue = 0.0"] ;
1277 -> 1297 ;
1298 [label="X[0] <= 21140.0\nmse = 195.918\nsamples = 7\nvalue = 14.286"] ;
1276 -> 1298 ;
1299 [label="mse = 0.0\nsamples = 1\nvalue = 40.0"] ;
1298 -> 1299 ;
1300 [label="X[2] <= 6.5\nmse = 100.0\nsamples = 6\nvalue = 10.0"] ;
1298 -> 1300 ;
1301 [label="X[5] <= 13.0\nmse = 100.0\nsamples = 2\nvalue = 20.0"] ;
1300 -> 1301 ;
1302 [label="mse = 0.0\nsamples = 1\nvalue = 30.0"] ;
1301 -> 1302 ;
1303 [label="mse = 0.0\nsamples = 1\nvalue = 10.0"] ;
1301 -> 1303 ;
1304 [label="X[5] <= 5.5\nmse = 25.0\nsamples = 4\nvalue = 5.0"] ;
1300 -> 1304 ;
1305 [label="mse = 0.0\nsamples = 1\nvalue = 0.0"] ;
1304 -> 1305 ;
1306 [label="X[4] <= 4.5\nmse = 22.222\nsamples = 3\nvalue = 6.667"] ;
1304 -> 1306 ;
1307 [label="mse = 0.0\nsamples = 2\nvalue = 10.0"] ;
1306 -> 1307 ;
1308 [label="mse = 0.0\nsamples = 1\nvalue = 0.0"] ;
1306 -> 1308 ;
1309 [label="X[4] <= 1.5\nmse = 243.438\nsamples = 40\nvalue = 16.25"] ;
1275 -> 1309 ;
1310 [label="X[6] <= 4.5\nmse = 150.413\nsamples = 33\nvalue = 13.636"] ;
1309 -> 1310 ;
1311 [label="X[0] <= 2115.5\nmse = 205.536\nsamples = 17\nvalue = 19.412"] ;
1310 -> 1311 ;
1312 [label="mse = 0.0\nsamples = 1\nvalue = 60.0"] ;
1311 -> 1312 ;
1313 [label="X[0] <= 15892.0\nmse = 108.984\nsamples = 16\nvalue = 16.875"] ;
1311 -> 1313 ;
1314 [label="X[0] <= 13109.0\nmse = 100.0\nsamples = 10\nvalue = 20.0"] ;
1313 -> 1314 ;
1315 [label="X[2] <= 6.5\nmse = 53.061\nsamples = 7\nvalue = 15.714"] ;
1314 -> 1315 ;
1316 [label="mse = 0.0\nsamples = 1\nvalue = 0.0"] ;
1315 -> 1316 ;
1317 [label="X[0] <= 3083.5\nmse = 13.889\nsamples = 6\nvalue = 18.333"] ;
1315 -> 1317 ;
1318 [label="mse = 0.0\nsamples = 1\nvalue = 10.0"] ;
1317 -> 1318 ;
1319 [label="mse = 0.0\nsamples = 5\nvalue = 20.0"] ;
1317 -> 1319 ;
1320 [label="X[3] <= 2.0\nmse = 66.667\nsamples = 3\nvalue = 30.0"] ;
1314 -> 1320 ;
1321 [label="mse = 0.0\nsamples = 1\nvalue = 20.0"] ;
1320 -> 1321 ;
