digraph Tree {
node [shape=box] ;
0 [label="X[1] <= 10.5\nmse = 3298.039\nsamples = 13523\nvalue = 42.126"] ;
1 [label="X[6] <= 31.5\nmse = 1901.195\nsamples = 10768\nvalue = 30.968"] ;
0 -> 1 [labeldistance=2.5, labelangle=45, headlabel="True"] ;
2 [label="X[4] <= 19.5\nmse = 952.761\nsamples = 6557\nvalue = 19.237"] ;
1 -> 2 ;
3 [label="X[6] <= 26.5\nmse = 1279.478\nsamples = 4289\nvalue = 25.166"] ;
2 -> 3 ;
4 [label="mse = 1217.355\nsamples = 1863\nvalue = 18.843"] ;
3 -> 4 ;
5 [label="mse = 1272.918\nsamples = 2426\nvalue = 30.021"] ;
3 -> 5 ;
6 [label="X[6] <= 26.5\nmse = 142.725\nsamples = 2268\nvalue = 8.025"] ;
2 -> 6 ;
7 [label="mse = 127.853\nsamples = 1843\nvalue = 7.284"] ;
6 -> 7 ;
8 [label="mse = 194.533\nsamples = 425\nvalue = 11.235"] ;
6 -> 8 ;
9 [label="X[6] <= 41.5\nmse = 2830.065\nsamples = 4211\nvalue = 49.234"] ;
1 -> 9 ;
10 [label="X[4] <= 19.5\nmse = 2137.19\nsamples = 2764\nvalue = 43.314"] ;
9 -> 10 ;
11 [label="mse = 2188.854\nsamples = 2618\nvalue = 44.956"] ;
10 -> 11 ;
12 [label="mse = 295.469\nsamples = 146\nvalue = 13.87"] ;
10 -> 12 ;
13 [label="X[0] <= 0.5\nmse = 3958.742\nsamples = 1447\nvalue = 60.543"] ;
9 -> 13 ;
14 [label="mse = 1223.899\nsamples = 150\nvalue = 35.967"] ;
13 -> 14 ;
15 [label="mse = 4197.102\nsamples = 1297\nvalue = 63.385"] ;
13 -> 15 ;
16 [label="X[4] <= 19.5\nmse = 6368.937\nsamples = 2755\nvalue = 85.739"] ;
0 -> 16 [labeldistance=2.5, labelangle=-45, headlabel="False"] ;
17 [label="X[6] <= 31.5\nmse = 6365.525\nsamples = 2252\nvalue = 100.986"] ;
16 -> 17 ;
18 [label="X[6] <= 26.5\nmse = 3168.823\nsamples = 904\nvalue = 70.481"] ;
17 -> 18 ;
19 [label="mse = 2395.182\nsamples = 327\nvalue = 53.104"] ;
18 -> 19 ;
20 [label="mse = 3339.146\nsamples = 577\nvalue = 80.329"] ;
18 -> 20 ;
21 [label="X[5] <= 0.5\nmse = 7466.779\nsamples = 1348\nvalue = 121.443"] ;
17 -> 21 ;
22 [label="mse = 3754.036\nsamples = 167\nvalue = 77.156"] ;
21 -> 22 ;
23 [label="mse = 7675.217\nsamples = 1181\nvalue = 127.705"] ;
21 -> 23 ;
24 [label="X[6] <= 26.5\nmse = 683.486\nsamples = 503\nvalue = 17.475"] ;
16 -> 24 ;
25 [label="X[5] <= 4.0\nmse = 494.355\nsamples = 298\nvalue = 14.027"] ;
24 -> 25 ;
26 [label="mse = 992.849\nsamples = 56\nvalue = 22.411"] ;
25 -> 26 ;
27 [label="mse = 358.972\nsamples = 242\nvalue = 12.087"] ;
25 -> 27 ;
28 [label="X[7] <= 2.5\nmse = 916.006\nsamples = 205\nvalue = 22.488"] ;
24 -> 28 ;
29 [label="mse = 466.482\nsamples = 92\nvalue = 13.587"] ;
28 -> 29 ;
30 [label="mse = 1164.974\nsamples = 113\nvalue = 29.735"] ;
28 -> 30 ;
}